{"learner":{"attributes":{"scikit_learn":"{\"_estimator_type\": \"regressor\"}"},"feature_names":["temperature_2m_mean","precipitation_sum","wind_speed_10m_max","wind_direction_10m_dominant"],"feature_types":["float","float","float","float"],"gradient_booster":{"model":{"gbtree_model_param":{"num_parallel_tree":"1","num_trees":"100"},"iteration_indptr":[0,1,2,3,4,5,6,7,8,9,10,11,12,13,14,15,16,17,18,19,20,21,22,23,24,25,26,27,28,29,30,31,32,33,34,35,36,37,38,39,40,41,42,43,44,45,46,47,48,49,50,51,52,53,54,55,56,57,58,59,60,61,62,63,64,65,66,67,68,69,70,71,72,73,74,75,76,77,78,79,80,81,82,83,84,85,86,87,88,89,90,91,92,93,94,95,96,97,98,99,100],"tree_info":[0,0,0,0,0,0,0,0,0,0,0,0,0,0,0,0,0,0,0,0,0,0,0,0,0,0,0,0,0,0,0,0,0,0,0,0,0,0,0,0,0,0,0,0,0,0,0,0,0,0,0,0,0,0,0,0,0,0,0,0,0,0,0,0,0,0,0,0,0,0,0,0,0,0,0,0,0,0,0,0,0,0,0,0,0,0,0,0,0,0,0,0,0,0,0,0,0,0,0,0],"trees":[{"base_weights":[-7.7355975E-7,-9.085597E0,1.5049753E0,1.5611502E0,-1.0570153E1,7.0110164E0,-3.4191725E0,2.8680222E1,-2.2078664E0,-1.2085446E1,-1.5404828E0,1.479478E1,3.3227274E0,5.249982E0,-4.871392E0,1.290305E1,3.0495645E-3,-6.9184403E0,8.874569E0,-9.410307E0,-1.5198737E1,5.3040667E0,-3.9805534E0,1.8643251E1,3.0880504E0,2.191286E0,2.0149881E1,1.1686381E1,1.2926883E0,-1.6536931E0,-6.6294312E0,-1.8572109E0,-3.1945786E0,1.0162643E0,5.7040663E0,-1.0200713E1,4.2040663E0,-1.2361106E1,-5.9159055E0,-1.2839717E1,-9.851254E-2,-7.455714E-1,2.137103E1,1.2074757E1,-3.0174596E0,6.4932303E0,6.012778E-1,1.5254429E1,2.9160284E1,1.9201225E1,-3.064697E0,-3.736263E0,1.4952309E1,2.8179865E0,-6.254618E0,-6.998024E0,1.1588855E1,-2.5151207E0,2.0295744E0,-1.1204257E0,3.0030496E0,-3.7665534E0,-2.2361667E0,-4.3341045E0,-1.9789855E0,-8.969505E-1,-4.1949177E0,9.0542144E-1,-9.6124524E-1,-1.6945786E0,1.272088E0,7.081287E0,1.1199492E0,-2.0969505E0,4.0822115E0,-1.4805418E0,1.3550826E0,3.6320536E0,2.934721E-1,3.7399963E-2,7.2648797E0,1.9040662E0,4.8056927E0,2.4030497E0,9.405084E0,6.205809E0,-1.7969505E0,-1.6308191E0,3.4530497E0,-2.105238E0,7.256926E-1,8.3033675E-1,7.580337E0,1.6440977E0,-7.534664E-1,-1.1597023E0,-4.071451E0,-2.2579076E0,7.557604E-1,4.5508263E-1,1.080305E1],"categories":[],"categories_nodes":[],"categories_segments":[],"categories_sizes":[],"default_left":[0,0,0,0,0,0,0,0,0,0,0,0,0,0,0,0,0,0,0,0,0,0,0,0,0,0,0,0,0,0,0,0,0,0,0,0,0,0,0,0,0,0,0,0,0,0,0,0,0,0,0,0,0,0,0,0,0,0,0,0,0,0,0,0,0,0,0,0,0,0,0,0,0,0,0,0,0,0,0,0,0,0,0,0,0,0,0,0,0,0,0,0,0,0,0,0,0,0,0,0,0],"id":0,"left_children":[1,3,5,7,9,11,13,15,17,19,21,23,25,27,29,-1,-1,31,33,35,37,-1,39,41,43,45,47,49,51,53,55,57,-1,59,-1,61,-1,63,-1,65,67,69,71,73,75,77,79,81,83,85,87,89,91,93,95,97,99,-1,-1,-1,-1,-1,-1,-1,-1,-1,-1,-1,-1,-1,-1,-1,-1,-1,-1,-1,-1,-1,-1,-1,-1,-1,-1,-1,-1,-1,-1,-1,-1,-1,-1,-1,-1,-1,-1,-1,-1,-1,-1,-1,-1],"loss_changes":[1.8185895E4,3.0037773E3,3.0959406E4,2.5164155E3,2.2526973E3,1.5424869E4,7.617051E3,1.2320837E3,1.2099E3,1.0396191E3,1.242874E3,7.7365977E3,6.9431357E3,2.2008462E3,2.913623E3,0E0,0E0,2.8229004E2,5.384039E2,1.6055835E3,5.772842E2,0E0,7.897428E2,6.891426E3,2.4506458E3,2.3559395E3,5.6970703E2,3.7169634E3,3.834012E3,3.8032163E3,2.323954E3,5.0691553E2,0E0,2.5103635E2,0E0,4.0439795E2,0E0,4.0971436E2,0E0,3.702527E1,1.7421306E2,4.3953058E2,4.402332E3,6.210488E2,4.1240308E2,2.8673464E3,2.8445388E3,1.4103516E1,7.3109375E1,9.4678906E2,4.77318E2,8.4503345E2,1.8154019E3,1.3475344E3,1.5381833E3,1.6682354E3,1.6671599E3,0E0,0E0,0E0,0E0,0E0,0E0,0E0,0E0,0E0,0E0,0E0,0E0,0E0,0E0,0E0,0E0,0E0,0E0,0E0,0E0,0E0,0E0,0E0,0E0,0E0,0E0,0E0,0E0,0E0,0E0,0E0,0E0,0E0,0E0,0E0,0E0,0E0,0E0,0E0,0E0,0E0,0E0,0E0,0E0],"parents":[2147483647,0,0,1,1,2,2,3,3,4,4,5,5,6,6,7,7,8,8,9,9,10,10,11,11,12,12,13,13,14,14,17,17,18,18,19,19,20,20,22,22,23,23,24,24,25,25,26,26,27,27,28,28,29,29,30,30,31,31,33,33,35,35,37,37,39,39,40,40,41,41,42,42,43,43,44,44,45,45,46,46,47,47,48,48,49,49,50,50,51,51,52,52,53,53,54,54,55,55,56,56],"right_children":[2,4,6,8,10,12,14,16,18,20,22,24,26,28,30,-1,-1,32,34,36,38,-1,40,42,44,46,48,50,52,54,56,58,-1,60,-1,62,-1,64,-1,66,68,70,72,74,76,78,80,82,84,86,88,90,92,94,96,98,100,-1,-1,-1,-1,-1,-1,-1,-1,-1,-1,-1,-1,-1,-1,-1,-1,-1,-1,-1,-1,-1,-1,-1,-1,-1,-1,-1,-1,-1,-1,-1,-1,-1,-1,-1,-1,-1,-1,-1,-1,-1,-1,-1,-1],"split_conditions":[9.39054E1,1.2287555E1,2.2279735E2,4.219928E0,1.49870825E1,6.037084E0,1.4372974E1,3.2475004E0,6.425863E1,1.909358E1,1.5262081E1,4.2E0,2.1232916E1,1.0016251E1,3E-1,1.290305E1,3.0495645E-3,1.0966713E1,1E-1,1.894024E1,1.8000001E0,5.3040667E0,1.6214167E1,-6.087499E-1,2.7852928E1,1.0476666E1,1.98E1,3.1212158E2,1.7770414E1,3.0026627E2,4.7242367E1,1.0028439E1,-3.1945786E0,7.899653E1,5.7040663E0,4.1904892E1,4.2040663E0,6.425863E1,-5.9159055E0,1.5630832E1,1.8516249E1,1.6992609E1,3.0599998E1,1.4044615E1,3.7777702E1,2.2392464E1,2.2174268E2,1.00935165E2,1.2069966E2,2.6000001E0,5.3704166E0,1.3441071E1,1.288981E1,1.1668334E1,3.3343497E2,1.7770414E1,5.964166E0,-2.5151207E0,2.0295744E0,-1.1204257E0,3.0030496E0,-3.7665534E0,-2.2361667E0,-4.3341045E0,-1.9789855E0,-8.969505E-1,-4.1949177E0,9.0542144E-1,-9.6124524E-1,-1.6945786E0,1.272088E0,7.081287E0,1.1199492E0,-2.0969505E0,4.0822115E0,-1.4805418E0,1.3550826E0,3.6320536E0,2.934721E-1,3.7399963E-2,7.2648797E0,1.9040662E0,4.8056927E0,2.4030497E0,9.405084E0,6.205809E0,-1.7969505E0,-1.6308191E0,3.4530497E0,-2.105238E0,7.256926E-1,8.3033675E-1,7.580337E0,1.6440977E0,-7.534664E-1,-1.1597023E0,-4.071451E0,-2.2579076E0,7.557604E-1,4.5508263E-1,1.080305E1],"split_indices":[3,2,3,3,0,0,2,0,3,2,0,1,0,0,1,0,0,2,1,2,1,0,0,0,2,0,2,3,0,3,2,2,0,3,0,3,0,3,0,0,0,2,2,2,2,2,3,3,3,1,0,2,2,0,3,0,0,0,0,0,0,0,0,0,0,0,0,0,0,0,0,0,0,0,0,0,0,0,0,0,0,0,0,0,0,0,0,0,0,0,0,0,0,0,0,0,0,0,0,0,0],"split_type":[0,0,0,0,0,0,0,0,0,0,0,0,0,0,0,0,0,0,0,0,0,0,0,0,0,0,0,0,0,0,0,0,0,0,0,0,0,0,0,0,0,0,0,0,0,0,0,0,0,0,0,0,0,0,0,0,0,0,0,0,0,0,0,0,0,0,0,0,0,0,0,0,0,0,0,0,0,0,0,0,0,0,0,0,0,0,0,0,0,0,0,0,0,0,0,0,0,0,0,0,0],"sum_hessian":[1.328E3,1.88E2,1.14E3,2.3E1,1.65E2,5.38E2,6.02E2,2E0,2.1E1,1.41E2,2.4E1,1.72E2,3.66E2,8.6E1,5.16E2,1E0,1E0,1.5E1,6E0,7.8E1,6.3E1,2E0,2.2E1,1.29E2,4.3E1,3.44E2,2.2E1,3.2E1,5.4E1,1.83E2,3.33E2,7E0,8E0,4E0,2E0,7.6E1,2E0,4.1E1,2.2E1,6E0,1.6E1,1.6E1,1.13E2,1.7E1,2.6E1,9.2E1,2.52E2,1.6E1,6E0,2.1E1,1.1E1,4E1,1.4E1,9.3E1,9E1,3.27E2,6E0,4E0,3E0,3E0,1E0,3.9E1,3.7E1,2.9E1,1.2E1,1E0,5E0,8E0,8E0,8E0,8E0,1E2,1.3E1,1E0,1.6E1,2.1E1,5E0,4.5E1,4.7E1,2.48E2,4E0,2E0,1.4E1,1E0,5E0,2E1,1E0,1E1,1E0,2.6E1,1.4E1,7E0,7E0,6.2E1,3.1E1,6.9E1,2.1E1,3.1E2,1.7E1,5E0,1E0],"tree_param":{"num_deleted":"0","num_feature":"4","num_nodes":"101","size_leaf_vector":"1"}},{"base_weights":[4.5901112E-2,-5.575595E0,1.252299E0,-6.4223976E0,7.272339E0,8.8306265E0,-1.2999824E0,2.6297677E0,-7.141736E0,2.2102637E0,1.2741816E1,1.7500565E1,5.2650137E0,1.7249591E0,-3.1420546E0,1.0967592E1,-1.7757018E0,-8.725199E0,-4.8937616E0,2.0974398E0,7.3868036E-1,1.0674397E0,1.3679407E1,-3.0932269E-1,2.0344305E1,1.9187679E0,8.986421E0,6.1499934E0,-1.087366E0,3.7322333E0,-4.0669203E0,6.074445E0,-4.054539E0,-9.803968E0,-5.921272E-1,-5.8868427E0,1.2570136E1,-4.0732765E-1,1.9865203E0,4.437611E0,1.2174397E0,3.0048227E0,-7.688819E0,2.6300552E1,9.482029E0,4.989974E-1,1.2880406E1,1.3153298E1,3.6134667E0,1.2025209E1,2.8742428E0,-1.613577E0,1.88104E1,8.959772E0,9.924115E-2,-1.6851906E0,-5.6780753E0,-1.5013865E0,3.4307022E0,-1.7431573E0,2.5525923E0,-2.6261199E0,-4.9689145E0,2.9735353E0,-2.6088135E0,-2.115333E-1,-2.840382E0,8.66992E0,-2.3848517E0,-1.5404391E-1,2.5920868E-3,7.963151E-1,-2.5603296E-3,-7.391456E-1,1.844934E0,-1.877638E-1,-2.950352E0,6.5562553E0,1.2349123E1,6.7653155E0,1.8242388E0,1.7327118E0,-3.2942373E-1,4.464032E0,1.5482936E0,6.0924973E0,2.8227503E0,1.2642635E0,-3.1525605E0,1.9742205E0,8.17963E0,1.8756189E0,-1.7262995E-1,2.5632235E-1,-1.1307803E0,5.556477E-1,8.849552E0,7.950545E-1,6.6109147E0,-1.0265754E0,3.9873552E0,1.3353723E-1,-1.9573165E0,-2.1704006E0,-5.985428E-1],"categories":[],"categories_nodes":[],"categories_segments":[],"categories_sizes":[],"default_left":[0,0,0,0,0,0,0,0,0,0,0,0,0,0,0,0,0,0,0,0,0,0,0,0,0,0,0,0,0,0,0,0,0,0,0,0,0,0,0,0,0,0,0,0,0,0,0,0,0,0,0,0,0,0,0,0,0,0,0,0,0,0,0,0,0,0,0,0,0,0,0,0,0,0,0,0,0,0,0,0,0,0,0,0,0,0,0,0,0,0,0,0,0,0,0,0,0,0,0,0,0,0,0,0,0],"id":1,"left_children":[1,3,5,7,9,11,13,15,17,19,21,23,25,27,29,-1,31,33,35,-1,37,-1,39,41,43,45,47,49,51,53,55,57,59,61,63,65,67,69,71,-1,-1,73,75,77,79,81,83,85,87,89,91,93,95,97,99,101,103,-1,-1,-1,-1,-1,-1,-1,-1,-1,-1,-1,-1,-1,-1,-1,-1,-1,-1,-1,-1,-1,-1,-1,-1,-1,-1,-1,-1,-1,-1,-1,-1,-1,-1,-1,-1,-1,-1,-1,-1,-1,-1,-1,-1,-1,-1,-1,-1],"loss_changes":[9.019942E3,2.6034272E3,2.1190994E4,1.4578389E3,3.871407E2,8.440027E3,4.574592E3,2.6059517E3,6.8701465E2,5.815898E1,1.1600708E1,4.0580273E3,2.4359473E3,3.8769683E3,3.2576519E3,0E0,3.1085638E2,1.0382666E3,1.5828452E3,0E0,1.224944E1,0E0,4.201416E0,3.165842E2,4.2148047E3,1.627689E3,2.0345967E3,2.2941719E3,2.030203E3,1.1575989E3,1.7172324E3,2.948209E2,3.3622946E2,6.0036816E2,1.3630356E3,1.5334958E3,1.9051259E3,2.2521585E-1,5.3523464E0,0E0,0E0,1.6993971E2,5.4464203E1,2.0082383E3,1.0185923E3,7.98509E2,1.0844263E2,1.2019619E3,4.0060132E2,3.3884995E3,9.2413586E2,9.981001E2,8.5162146E2,2.0043005E3,1.7641656E3,1.8894535E3,1.5219629E3,0E0,0E0,0E0,0E0,0E0,0E0,0E0,0E0,0E0,0E0,0E0,0E0,0E0,0E0,0E0,0E0,0E0,0E0,0E0,0E0,0E0,0E0,0E0,0E0,0E0,0E0,0E0,0E0,0E0,0E0,0E0,0E0,0E0,0E0,0E0,0E0,0E0,0E0,0E0,0E0,0E0,0E0,0E0,0E0,0E0,0E0,0E0,0E0],"parents":[2147483647,0,0,1,1,2,2,3,3,4,4,5,5,6,6,7,7,8,8,9,9,10,10,11,11,12,12,13,13,14,14,16,16,17,17,18,18,20,20,22,22,23,23,24,24,25,25,26,26,27,27,28,28,29,29,30,30,31,31,32,32,33,33,34,34,35,35,36,36,37,37,38,38,41,41,42,42,43,43,44,44,45,45,46,46,47,47,48,48,49,49,50,50,51,51,52,52,53,53,54,54,55,55,56,56],"right_children":[2,4,6,8,10,12,14,16,18,20,22,24,26,28,30,-1,32,34,36,-1,38,-1,40,42,44,46,48,50,52,54,56,58,60,62,64,66,68,70,72,-1,-1,74,76,78,80,82,84,86,88,90,92,94,96,98,100,102,104,-1,-1,-1,-1,-1,-1,-1,-1,-1,-1,-1,-1,-1,-1,-1,-1,-1,-1,-1,-1,-1,-1,-1,-1,-1,-1,-1,-1,-1,-1,-1,-1,-1,-1,-1,-1,-1,-1,-1,-1,-1,-1,-1,-1,-1,-1,-1,-1],"split_conditions":[1.111313E2,1.9180834E1,1.7743082E2,1.1874544E1,2.1232916E1,5.7537503E0,2.4454897E2,4.219928E0,7.0433335E0,9.007196E0,1E-1,-3.4E-1,1.5069258E2,1.2000002E0,1.3783817E1,1.0967592E1,4.7500003E-2,9.6894104E1,3.1394394E1,2.0974398E0,1.7373497E1,1.0674397E0,1.8486622E1,2.4863468E1,1.4000001E0,2.0766249E1,7E-1,7.457916E0,2.4420229E2,8.466251E0,3E-1,-4.944166E0,7.119889E1,2.9179993E1,1.00935165E2,1.3449584E1,1.0000001E0,1.9868332E1,1.9630833E1,4.437611E0,1.2174397E0,1.5463244E1,1E-1,5E-1,1.1979272E2,8.170417E0,1.3948416E2,1.192875E1,1.2600001E1,2.1969125E2,3E-1,9.707916E0,3.301418E1,3.814167E0,1.3104198E1,3.1641895E2,3.1154043E1,-1.5013865E0,3.4307022E0,-1.7431573E0,2.5525923E0,-2.6261199E0,-4.9689145E0,2.9735353E0,-2.6088135E0,-2.115333E-1,-2.840382E0,8.66992E0,-2.3848517E0,-1.5404391E-1,2.5920868E-3,7.963151E-1,-2.5603296E-3,-7.391456E-1,1.844934E0,-1.877638E-1,-2.950352E0,6.5562553E0,1.2349123E1,6.7653155E0,1.8242388E0,1.7327118E0,-3.2942373E-1,4.464032E0,1.5482936E0,6.0924973E0,2.8227503E0,1.2642635E0,-3.1525605E0,1.9742205E0,8.17963E0,1.8756189E0,-1.7262995E-1,2.5632235E-1,-1.1307803E0,5.556477E-1,8.849552E0,7.950545E-1,6.6109147E0,-1.0265754E0,3.9873552E0,1.3353723E-1,-1.9573165E0,-2.1704006E0,-5.985428E-1],"split_indices":[3,0,3,2,0,0,3,3,0,2,1,0,3,1,2,0,0,3,2,0,2,0,2,2,1,0,1,0,3,0,1,0,3,2,3,0,1,0,0,0,0,2,1,1,3,0,3,0,1,3,1,0,2,0,2,3,2,0,0,0,0,0,0,0,0,0,0,0,0,0,0,0,0,0,0,0,0,0,0,0,0,0,0,0,0,0,0,0,0,0,0,0,0,0,0,0,0,0,0,0,0,0,0,0,0],"split_type":[0,0,0,0,0,0,0,0,0,0,0,0,0,0,0,0,0,0,0,0,0,0,0,0,0,0,0,0,0,0,0,0,0,0,0,0,0,0,0,0,0,0,0,0,0,0,0,0,0,0,0,0,0,0,0,0,0,0,0,0,0,0,0,0,0,0,0,0,0,0,0,0,0,0,0,0,0,0,0,0,0,0,0,0,0,0,0,0,0,0,0,0,0,0,0,0,0,0,0,0,0,0,0,0,0],"sum_hessian":[1.328E3,2.34E2,1.094E3,2.2E2,1.4E1,2.75E2,8.19E2,1.6E1,2.04E2,8E0,6E0,7.9E1,1.96E2,3.1E2,5.09E2,1E0,1.5E1,1.18E2,8.6E1,1E0,7E0,1E0,5E0,1.1E1,6.8E1,1.04E2,9.2E1,1.2E2,1.9E2,6E1,4.49E2,3E0,1.2E1,1.04E2,1.4E1,8.2E1,4E0,4E0,3E0,4E0,1E0,8E0,3E0,4.3E1,2.5E1,9.3E1,1.1E1,5.1E1,4.1E1,4.2E1,7.8E1,1.86E2,4E0,2.4E1,3.6E1,1.82E2,2.67E2,1E0,2E0,1.1E1,1E0,9.2E1,1.2E1,6E0,8E0,3.4E1,4.8E1,2E0,2E0,3E0,1E0,2E0,1E0,3E0,5E0,1E0,2E0,3.5E1,8E0,4E0,2.1E1,2.1E1,7.2E1,8E0,3E0,1.6E1,3.5E1,4E1,1E0,3.2E1,1E1,3.9E1,3.9E1,8.7E1,9.9E1,2E0,2E0,1.7E1,7E0,2.9E1,7E0,1.27E2,5.5E1,1.87E2,8E1],"tree_param":{"num_deleted":"0","num_feature":"4","num_nodes":"105","size_leaf_vector":"1"}},{"base_weights":[9.626787E-2,-1.8304305E-1,1.3080788E1,-4.223456E0,6.7863065E-1,8.429213E0,1.779959E1,3.1603367E0,-4.8304596E0,6.022246E0,-1.0355736E0,5.33461E0,3.2570968E0,5.859395E0,2.706112E0,9.3224535E0,-3.0962518E-1,-5.4369326E0,-2.8273332E-1,1.2095079E1,2.8632612E0,1.1081942E0,-2.342666E0,2.254001E0,2.5865612E0,-3.188933E0,5.5005946E0,-7.6525717E0,-3.8164158E0,3.4717982E0,-3.2675097E0,1.5494876E1,2.7718048E0,-1.07664645E-1,5.94031E0,4.0668035E0,-9.786749E-1,2.375275E0,-2.9707057E0,1.2999516E0,9.7153246E-1,1.8417913E0,-1.378522E0,2.735025E0,4.2399874E-1,-3.7094727E-1,-2.5104523E0,-8.656534E-1,-3.5796716E0,2.9198965E-1,4.643294E0,-1.4051281E0,5.3943586E-1,5.049653E0,-2.732099E0,1.6954581E-1,4.264632E0,-2.1542501E0,4.9863687E-1,2.673294E0,6.09468E-1,2.5237546E0,4.8280182E-1,1.7224686E0,-5.672668E-1,2.4652712E0,-2.9438502E-1,-2.938016E0,-7.421799E-1,7.7994317E-1,-2.9417688E-1],"categories":[],"categories_nodes":[],"categories_segments":[],"categories_sizes":[],"default_left":[0,0,0,0,0,0,0,0,0,0,0,0,0,0,0,0,0,0,0,0,0,0,0,0,0,0,0,0,0,0,0,0,0,0,0,0,0,0,0,0,0,0,0,0,0,0,0,0,0,0,0,0,0,0,0,0,0,0,0,0,0,0,0,0,0,0,0,0,0,0,0],"id":2,"left_children":[1,3,5,7,9,11,13,15,17,19,21,23,-1,-1,-1,-1,25,27,29,31,33,35,37,39,-1,41,43,45,47,49,51,53,55,57,59,61,63,65,67,-1,69,-1,-1,-1,-1,-1,-1,-1,-1,-1,-1,-1,-1,-1,-1,-1,-1,-1,-1,-1,-1,-1,-1,-1,-1,-1,-1,-1,-1,-1,-1],"loss_changes":[4.8223027E3,4.535802E3,4.6455957E2,1.0416418E3,9.844129E3,6.2290283E1,2.1461914E1,1.7531426E3,5.831743E2,4.9723896E3,2.2835078E3,7.1707184E1,0E0,0E0,0E0,0E0,3.01941E2,6.4221436E2,3.0271146E2,2.7781045E3,1.5821509E3,1.9118171E3,1.5063616E3,1.1789009E1,0E0,1.8561224E2,7.579614E1,3.477793E2,7.966255E2,3.4489484E2,1.1603496E2,2.2917988E3,6.2326917E2,1.1260378E3,9.6888354E2,1.3534282E3,1.1265708E3,1.1846641E3,1.4908E3,0E0,1.8442333E1,0E0,0E0,0E0,0E0,0E0,0E0,0E0,0E0,0E0,0E0,0E0,0E0,0E0,0E0,0E0,0E0,0E0,0E0,0E0,0E0,0E0,0E0,0E0,0E0,0E0,0E0,0E0,0E0,0E0,0E0],"parents":[2147483647,0,0,1,1,2,2,3,3,4,4,5,5,6,6,7,7,8,8,9,9,10,10,11,11,16,16,17,17,18,18,19,19,20,20,21,21,22,22,23,23,25,25,26,26,27,27,28,28,29,29,30,30,31,31,32,32,33,33,34,34,35,35,36,36,37,37,38,38,40,40],"right_children":[2,4,6,8,10,12,14,16,18,20,22,24,-1,-1,-1,-1,26,28,30,32,34,36,38,40,-1,42,44,46,48,50,52,54,56,58,60,62,64,66,68,-1,70,-1,-1,-1,-1,-1,-1,-1,-1,-1,-1,-1,-1,-1,-1,-1,-1,-1,-1,-1,-1,-1,-1,-1,-1,-1,-1,-1,-1,-1,-1],"split_conditions":[2.1232916E1,1.111313E2,2.246625E1,1.1874544E1,1.7743082E2,1E-1,3E-1,4.219928E0,1.656E1,6.3224998E0,2.4454897E2,1.5129414E2,3.2570968E0,5.859395E0,2.706112E0,9.3224535E0,6.425863E1,5.0053898E1,6.2631893E1,1.6044273E2,1.5069258E2,8.287084E0,1.3783817E1,2.146625E1,2.5865612E0,8.707238E0,3.5183334E0,-4.944166E0,6.3999996E0,5.693811E1,1.1000001E0,3.209052E1,2.9179993E1,1.4182355E1,7E-1,1.1000001E0,1.4255272E1,2.8665167E2,1.5766667E0,1.2999516E0,1.1861035E2,1.8417913E0,-1.378522E0,2.735025E0,4.2399874E-1,-3.7094727E-1,-2.5104523E0,-8.656534E-1,-3.5796716E0,2.9198965E-1,4.643294E0,-1.4051281E0,5.3943586E-1,5.049653E0,-2.732099E0,1.6954581E-1,4.264632E0,-2.1542501E0,4.9863687E-1,2.673294E0,6.09468E-1,2.5237546E0,4.8280182E-1,1.7224686E0,-5.672668E-1,2.4652712E0,-2.9438502E-1,-2.938016E0,-7.421799E-1,7.7994317E-1,-2.9417688E-1],"split_indices":[0,3,0,2,3,1,1,3,0,0,3,3,0,0,0,0,3,3,3,3,3,0,2,0,0,2,0,0,1,3,1,2,2,2,1,1,2,3,0,0,3,0,0,0,0,0,0,0,0,0,0,0,0,0,0,0,0,0,0,0,0,0,0,0,0,0,0,0,0,0,0],"split_type":[0,0,0,0,0,0,0,0,0,0,0,0,0,0,0,0,0,0,0,0,0,0,0,0,0,0,0,0,0,0,0,0,0,0,0,0,0,0,0,0,0,0,0,0,0,0,0,0,0,0,0,0,0,0,0,0,0,0,0,0,0,0,0,0,0,0,0,0,0,0,0],"sum_hessian":[1.328E3,1.301E3,2.7E1,2.28E2,1.073E3,1.5E1,1.2E1,1.7E1,2.11E2,2.6E2,8.13E2,8E0,7E0,9E0,3E0,1E0,1.6E1,1.86E2,2.5E1,8.8E1,1.72E2,3.08E2,5.05E2,5E0,3E0,1.1E1,5E0,7.7E1,1.09E2,1.1E1,1.4E1,6.4E1,2.4E1,8.8E1,8.4E1,1.27E2,1.81E2,5.9E1,4.46E2,1E0,4E0,1E0,1E1,2E0,3E0,8E0,6.9E1,9.9E1,1E1,1E1,1E0,1.1E1,3E0,6.1E1,3E0,2.1E1,3E0,1.7E1,7.1E1,4.7E1,3.7E1,4.5E1,8.2E1,2.1E1,1.6E2,2.1E1,3.8E1,2.9E1,4.17E2,2E0,2E0],"tree_param":{"num_deleted":"0","num_feature":"4","num_nodes":"71","size_leaf_vector":"1"}},{"base_weights":[9.516326E-2,-2.2752073E-1,7.0449295E0,9.5021677E-1,-2.4006884E0,5.2150865E0,1.3118597E1,-3.4240654E0,1.911543E0,-4.409444E0,6.597874E-1,2.3265996E0,8.391703E0,8.240083E0,1.6123028E1,-1.0641767E0,-6.8110495E0,6.1631804E0,3.4761244E-1,-2.5856416E0,-5.536491E0,-2.1129443E-1,5.7603927E0,-1.9345374E0,5.1107187E0,9.737556E0,-9.902573E-2,1.0698162E0,2.818945E0,5.466435E0,5.298741E-1,1.6916897E1,-1.6719818E0,-7.6328197E0,6.807376E0,-5.199298E0,6.924505E0,1.2062064E0,-5.7949224E0,2.022968E0,-3.4368858E0,-7.7417293E0,-3.2379787E0,3.2668142E0,-2.6822684E0,1.3718025E1,2.3326683E0,1.1049591E0,-2.8646305E0,9.457211E0,1.5571029E0,6.7208743E0,3.7027986E0,-6.077082E-1,8.5214686E-1,-3.114816E-1,7.9240856E0,-6.397035E-1,3.5786903E0,-1.7601724E0,-3.0193417E0,-1.3385248E0,3.6153004E0,-2.0644715E0,-3.4307674E-2,4.5771704E0,1.5768497E0,1.4528896E0,-9.125584E-2,-1.4736278E0,-3.1049783E0,-5.40029E-1,3.4675028E0,-1.3263956E0,1.1836723E0,-3.791969E0,-2.0727017E0,6.1194694E-1,-1.58854E0,5.3182054E-1,4.5538917E0,1.5718068E0,-9.9314165E-1,8.38927E-2,7.740794E0,-1.4712989E0,-3.8695654E-1,5.8109856E-1,3.6233695E0,-7.0051235E-1,1.0676227E0,3.3391168E0,1.1028023E0],"categories":[],"categories_nodes":[],"categories_segments":[],"categories_sizes":[],"default_left":[0,0,0,0,0,0,0,0,0,0,0,0,0,0,0,0,0,0,0,0,0,0,0,0,0,0,0,0,0,0,0,0,0,0,0,0,0,0,0,0,0,0,0,0,0,0,0,0,0,0,0,0,0,0,0,0,0,0,0,0,0,0,0,0,0,0,0,0,0,0,0,0,0,0,0,0,0,0,0,0,0,0,0,0,0,0,0,0,0,0,0,0,0],"id":3,"left_children":[1,3,5,7,9,11,13,15,17,19,21,23,25,27,29,31,33,35,37,39,41,43,45,47,49,51,53,-1,-1,-1,-1,55,57,59,61,63,65,67,69,71,73,75,77,79,81,-1,83,-1,85,87,89,91,-1,-1,-1,-1,-1,-1,-1,-1,-1,-1,-1,-1,-1,-1,-1,-1,-1,-1,-1,-1,-1,-1,-1,-1,-1,-1,-1,-1,-1,-1,-1,-1,-1,-1,-1,-1,-1,-1,-1,-1,-1],"loss_changes":[2.9819895E3,3.2553054E3,5.87303E2,3.4757627E3,2.7509526E3,4.1172974E2,5.768799E1,1.1836948E3,4.49941E3,5.406719E2,7.920791E2,3.1833823E2,2.5236414E2,4.326935E0,1.7870251E2,1.0009647E3,7.346233E2,1.6104009E3,2.622866E3,4.1887323E2,8.1634814E2,1.3236929E3,3.4551694E3,6.8026184E1,2.3240634E2,6.63634E1,2.8407843E1,0E0,0E0,0E0,0E0,5.3897015E2,5.7017645E2,1.8995923E2,2.901328E2,1.01864136E2,2.2970166E3,2.396392E3,1.9445923E2,6.405301E2,6.642551E2,2.552915E2,9.119532E2,1.1122074E3,4.652201E2,0E0,1.1973964E3,0E0,2.5794807E1,1.1456207E2,8.6216484E1,1.0677481E2,0E0,0E0,0E0,0E0,0E0,0E0,0E0,0E0,0E0,0E0,0E0,0E0,0E0,0E0,0E0,0E0,0E0,0E0,0E0,0E0,0E0,0E0,0E0,0E0,0E0,0E0,0E0,0E0,0E0,0E0,0E0,0E0,0E0,0E0,0E0,0E0,0E0,0E0,0E0,0E0,0E0],"parents":[2147483647,0,0,1,1,2,2,3,3,4,4,5,5,6,6,7,7,8,8,9,9,10,10,11,11,12,12,13,13,14,14,15,15,16,16,17,17,18,18,19,19,20,20,21,21,22,22,23,23,24,24,25,25,26,26,31,31,32,32,33,33,34,34,35,35,36,36,37,37,38,38,39,39,40,40,41,41,42,42,43,43,44,44,46,46,48,48,49,49,50,50,51,51],"right_children":[2,4,6,8,10,12,14,16,18,20,22,24,26,28,30,32,34,36,38,40,42,44,46,48,50,52,54,-1,-1,-1,-1,56,58,60,62,64,66,68,70,72,74,76,78,80,82,-1,84,-1,86,88,90,92,-1,-1,-1,-1,-1,-1,-1,-1,-1,-1,-1,-1,-1,-1,-1,-1,-1,-1,-1,-1,-1,-1,-1,-1,-1,-1,-1,-1,-1,-1,-1,-1,-1,-1,-1,-1,-1,-1,-1,-1,-1],"split_conditions":[1.9630833E1,1.2795418E1,2.246625E1,9.6894104E1,1.6464167E1,3E-1,1.4750562E2,1.909358E1,1.7906778E2,3E-1,6.2000003E0,1.4182355E1,3.7E0,1E-1,1E-1,4.219928E0,1.0322501E1,-7.5874996E-1,3.1897345E2,1.3722499E1,2.4063513E1,1.6418526E1,6.4999995E0,9.007196E0,1.5463244E1,1.3000001E0,5.5999994E0,1.0698162E0,2.818945E0,5.466435E0,5.298741E-1,-4.3712497E0,1.894024E1,2.5849998E0,2.2450264E1,4E-1,2.312083E0,2E-1,1.1112083E1,1.906301E1,2E-1,1.4182355E1,2.102763E2,1.594601E1,6.2631893E1,1.3718025E1,2.976484E1,1.1049591E0,1.0805999E1,9.6894104E1,1.692383E1,6E-1,3.7027986E0,-6.077082E-1,8.5214686E-1,-3.114816E-1,7.9240856E0,-6.397035E-1,3.5786903E0,-1.7601724E0,-3.0193417E0,-1.3385248E0,3.6153004E0,-2.0644715E0,-3.4307674E-2,4.5771704E0,1.5768497E0,1.4528896E0,-9.125584E-2,-1.4736278E0,-3.1049783E0,-5.40029E-1,3.4675028E0,-1.3263956E0,1.1836723E0,-3.791969E0,-2.0727017E0,6.1194694E-1,-1.58854E0,5.3182054E-1,4.5538917E0,1.5718068E0,-9.9314165E-1,8.38927E-2,7.740794E0,-1.4712989E0,-3.8695654E-1,5.8109856E-1,3.6233695E0,-7.0051235E-1,1.0676227E0,3.3391168E0,1.1028023E0],"split_indices":[0,0,0,3,0,1,3,2,3,1,1,2,1,1,1,3,0,0,3,0,2,2,1,2,2,1,1,0,0,0,0,0,2,0,2,1,0,1,0,2,1,2,3,2,3,0,2,0,2,3,2,1,0,0,0,0,0,0,0,0,0,0,0,0,0,0,0,0,0,0,0,0,0,0,0,0,0,0,0,0,0,0,0,0,0,0,0,0,0,0,0,0,0],"split_type":[0,0,0,0,0,0,0,0,0,0,0,0,0,0,0,0,0,0,0,0,0,0,0,0,0,0,0,0,0,0,0,0,0,0,0,0,0,0,0,0,0,0,0,0,0,0,0,0,0,0,0,0,0,0,0,0,0,0,0,0,0,0,0,0,0,0,0,0,0,0,0,0,0,0,0,0,0,0,0,0,0,0,0,0,0,0,0,0,0,0,0,0,0],"sum_hessian":[1.328E3,1.27E3,5.8E1,8.24E2,4.46E2,4.6E1,1.2E1,1.48E2,6.76E2,2.69E2,1.77E2,2.5E1,2.1E1,6E0,6E0,8.8E1,6E1,1.81E2,4.95E2,1.04E2,1.65E2,1.52E2,2.5E1,1E1,1.5E1,1.8E1,3E0,2E0,4E0,5E0,1E0,2E0,8.6E1,5.7E1,3E0,1.1E1,1.7E2,4.35E2,6E1,1.6E1,8.8E1,8.3E1,8.2E1,6.3E1,8.9E1,1E0,2.4E1,1E0,9E0,6E0,9E0,1E1,8E0,2E0,1E0,1E0,1E0,8.4E1,2E0,3.5E1,2.2E1,1E0,2E0,8E0,3E0,2.7E1,1.43E2,1.27E2,3.08E2,5.2E1,8E0,1.2E1,4E0,7.8E1,1E1,1E1,7.3E1,2.3E1,5.9E1,5.7E1,6E0,6E0,8.3E1,2.3E1,1E0,3E0,6E0,2E0,4E0,3E0,6E0,3E0,7E0],"tree_param":{"num_deleted":"0","num_feature":"4","num_nodes":"93","size_leaf_vector":"1"}},{"base_weights":[1.0734407E-1,-1.3405807E-1,5.3058996E0,6.759237E-1,-1.628691E0,3.910293E0,9.943408E0,-2.7499597E0,1.291617E0,-3.1834874E0,5.3022265E-1,1.7754763E0,6.255518E0,6.9270983E0,4.0152254E0,-3.9131093E0,-1.513606E-1,2.2781289E0,-2.134842E0,-3.6094542E0,2.0257333E-1,-1.5094863E-1,4.5976124E0,-1.4226575E0,3.863226E0,7.2449594E0,-8.208275E-3,2.6863298E0,2.1543226E0,2.4217844E0,-4.328917E0,9.570778E0,-2.503656E0,2.8193965E0,-3.3737068E0,-2.555936E0,1.1177603E1,-4.166495E0,1.1875866E-1,-5.9086356E0,1.6611605E0,2.4551988E0,-1.9226474E0,1.1660321E1,1.7846177E0,9.392155E-1,-2.191067E0,7.2206845E0,1.1266826E0,1.0580894E1,5.2977757E0,-4.861666E-1,7.2432494E-1,1.8779527E-1,7.365323E-1,1.9599425E0,-1.1601858E0,-1.9036897E-1,-1.5439621E0,2.930436E-1,5.376162E0,-8.302701E-2,-2.0796883E0,-2.7011448E-1,1.0966073E0,-1.3378615E0,2.0569057E0,-6.381352E-1,-3.0187173E0,2.9338747E-1,7.7964272E0,-9.136679E-1,-1.6890018E0,3.1454406E0,-6.833918E-1,1.1164966E0,-2.5737073E0,-1.3889616E0,9.239768E-1,4.0005928E-1,4.7618523E0,-1.4403179E0,-2.5695524E-1,3.0426752E-2,6.579675E0,-1.1402569E0,-2.8745338E-1,2.6559763E0,-3.8621008E-1,-5.4289716E-1,7.93091E-1,1.3175824E0,3.773216E0,5.300236E-1,1.8300513E0],"categories":[],"categories_nodes":[],"categories_segments":[],"categories_sizes":[],"default_left":[0,0,0,0,0,0,0,0,0,0,0,0,0,0,0,0,0,0,0,0,0,0,0,0,0,0,0,0,0,0,0,0,0,0,0,0,0,0,0,0,0,0,0,0,0,0,0,0,0,0,0,0,0,0,0,0,0,0,0,0,0,0,0,0,0,0,0,0,0,0,0,0,0,0,0,0,0,0,0,0,0,0,0,0,0,0,0,0,0,0,0,0,0,0,0],"id":4,"left_children":[1,3,5,7,9,11,13,15,17,19,21,23,25,27,-1,29,31,33,35,37,39,41,43,45,47,49,51,-1,53,55,57,59,61,63,65,67,69,71,73,75,77,79,81,-1,83,-1,85,87,89,91,93,-1,-1,-1,-1,-1,-1,-1,-1,-1,-1,-1,-1,-1,-1,-1,-1,-1,-1,-1,-1,-1,-1,-1,-1,-1,-1,-1,-1,-1,-1,-1,-1,-1,-1,-1,-1,-1,-1,-1,-1,-1,-1,-1,-1],"loss_changes":[1.6685299E3,1.5398057E3,3.429746E2,1.7437194E3,1.5021196E3,2.242049E2,4.220288E1,3.8025018E2,2.3710332E3,3.757422E2,5.215647E2,1.7909554E2,1.3640637E2,6.7793396E1,0E0,2.3965015E2,9.387355E2,1.6736921E3,9.0867847E2,4.8022778E2,2.772271E2,7.527244E2,2.5334812E3,4.534704E1,1.3886989E2,6.736273E1,1.9537142E1,0E0,3.0194473E-1,1.8040521E2,2.444226E2,5.5655554E2,3.2353177E2,1.5487573E3,5.63766E2,4.710893E2,7.298933E2,3.1259424E2,7.940673E2,1.8622789E2,2.3739658E2,9.72142E2,2.9355768E2,0E0,8.794979E2,0E0,1.6205017E1,1.0862729E2,4.9326992E1,1.889801E1,2.888852E1,0E0,0E0,0E0,0E0,0E0,0E0,0E0,0E0,0E0,0E0,0E0,0E0,0E0,0E0,0E0,0E0,0E0,0E0,0E0,0E0,0E0,0E0,0E0,0E0,0E0,0E0,0E0,0E0,0E0,0E0,0E0,0E0,0E0,0E0,0E0,0E0,0E0,0E0,0E0,0E0,0E0,0E0,0E0,0E0],"parents":[2147483647,0,0,1,1,2,2,3,3,4,4,5,5,6,6,7,7,8,8,9,9,10,10,11,11,12,12,13,13,15,15,16,16,17,17,18,18,19,19,20,20,21,21,22,22,23,23,24,24,25,25,26,26,28,28,29,29,30,30,31,31,32,32,33,33,34,34,35,35,36,36,37,37,38,38,39,39,40,40,41,41,42,42,44,44,46,46,47,47,48,48,49,49,50,50],"right_children":[2,4,6,8,10,12,14,16,18,20,22,24,26,28,-1,30,32,34,36,38,40,42,44,46,48,50,52,-1,54,56,58,60,62,64,66,68,70,72,74,76,78,80,82,-1,84,-1,86,88,90,92,94,-1,-1,-1,-1,-1,-1,-1,-1,-1,-1,-1,-1,-1,-1,-1,-1,-1,-1,-1,-1,-1,-1,-1,-1,-1,-1,-1,-1,-1,-1,-1,-1,-1,-1,-1,-1,-1,-1,-1,-1,-1,-1,-1,-1],"split_conditions":[1.9630833E1,1.2795418E1,2.246625E1,6.1E-1,1.635375E1,3E-1,2.0188908E1,4E-1,4.2E0,3.0449084E2,6.2000003E0,1.4182355E1,3.7E0,1.675064E1,4.0152254E0,1.0308831E1,9E-1,3.1641895E2,4.7242367E1,3.2209442E1,1.4255272E1,1.6279802E1,6.4999995E0,9.007196E0,1.5463244E1,1.5175612E1,5.5999994E0,2.6863298E0,1.8486622E1,4.7500003E-2,-4.944166E0,-2.4208331E-1,2.6693459E1,1.12806755E2,8E-1,1.69E1,5.964166E0,2.4599696E2,1.0000001E0,1.3722499E1,1.4057915E1,1.594601E1,1E-1,1.1660321E1,2.976484E1,9.392155E-1,1.0805999E1,2.9787122E2,1.692383E1,1.0818917E2,1.1633304E2,-4.861666E-1,7.2432494E-1,1.8779527E-1,7.365323E-1,1.9599425E0,-1.1601858E0,-1.9036897E-1,-1.5439621E0,2.930436E-1,5.376162E0,-8.302701E-2,-2.0796883E0,-2.7011448E-1,1.0966073E0,-1.3378615E0,2.0569057E0,-6.381352E-1,-3.0187173E0,2.9338747E-1,7.7964272E0,-9.136679E-1,-1.6890018E0,3.1454406E0,-6.833918E-1,1.1164966E0,-2.5737073E0,-1.3889616E0,9.239768E-1,4.0005928E-1,4.7618523E0,-1.4403179E0,-2.5695524E-1,3.0426752E-2,6.579675E0,-1.1402569E0,-2.8745338E-1,2.6559763E0,-3.8621008E-1,-5.4289716E-1,7.93091E-1,1.3175824E0,3.773216E0,5.300236E-1,1.8300513E0],"split_indices":[0,0,0,0,0,1,2,1,1,3,1,2,1,2,0,2,1,3,2,2,2,2,1,2,2,2,1,0,2,0,0,0,2,3,1,1,0,3,1,0,0,2,1,0,2,0,2,3,2,3,3,0,0,0,0,0,0,0,0,0,0,0,0,0,0,0,0,0,0,0,0,0,0,0,0,0,0,0,0,0,0,0,0,0,0,0,0,0,0,0,0,0,0,0,0],"split_type":[0,0,0,0,0,0,0,0,0,0,0,0,0,0,0,0,0,0,0,0,0,0,0,0,0,0,0,0,0,0,0,0,0,0,0,0,0,0,0,0,0,0,0,0,0,0,0,0,0,0,0,0,0,0,0,0,0,0,0,0,0,0,0,0,0,0,0,0,0,0,0,0,0,0,0,0,0,0,0,0,0,0,0,0,0,0,0,0,0,0,0,0,0,0,0],"sum_hessian":[1.328E3,1.27E3,5.8E1,8.24E2,4.46E2,4.6E1,1.2E1,1.25E2,6.99E2,2.59E2,1.87E2,2.5E1,2.1E1,8E0,4E0,8.6E1,3.9E1,5.43E2,1.56E2,2.3E2,2.9E1,1.61E2,2.6E1,1E1,1.5E1,1.8E1,3E0,5E0,3E0,5E0,8.1E1,7E0,3.2E1,4.96E2,4.7E1,1.52E2,4E0,2E2,3E1,5E0,2.4E1,6.5E1,9.6E1,1E0,2.5E1,1E0,9E0,6E0,9E0,5E0,1.3E1,2E0,1E0,1E0,2E0,3E0,2E0,1.5E1,6.6E1,4E0,3E0,2.2E1,1E1,9.1E1,4.05E2,4.3E1,4E0,1.45E2,7E0,3E0,1E0,1.15E2,8.5E1,5E0,2.5E1,1E0,4E0,4E0,2E1,6.1E1,4E0,2.5E1,7.1E1,2.4E1,1E0,3E0,6E0,5E0,1E0,3E0,6E0,2E0,3E0,3E0,1E1],"tree_param":{"num_deleted":"0","num_feature":"4","num_nodes":"95","size_leaf_vector":"1"}},{"base_weights":[1.0942917E-1,8.032296E-1,-1.1234175E0,-1.4678016E0,1.7773583E0,7.005566E-1,-2.1851997E0,2.7195797E0,-1.7770277E0,1.6375122E1,1.5003059E0,1.7146561E0,-5.835772E0,-2.4939873E0,6.2384334E0,6.77599E0,2.2230418E-1,-2.9414384E0,-5.781141E-1,1.8543808E1,-7.967606E-1,3.2288446E0,-5.9675124E-2,4.7607946E0,7.449801E-1,-7.6769857E0,-1.1937213E0,-2.7984416E0,2.6135337E0,4.016963E0,1.8829086E0,2.156343E0,-3.6828241E0,-2.1803296E0,-3.6512268E0,-3.1874213E0,1.1694534E0,2.2066116E1,8.9091533E-1,2.7898974E0,1.1962011E1,-2.3857771E-1,1.8267914E1,-3.997616E0,6.2542214E0,2.4546051E-1,8.630868E0,2.9746463E0,-9.295513E0,-1.8122816E0,1.5491191E0,-4.5616746E0,-2.1801424E0,1.1112643E1,-8.563956E-1,-7.4396324E-1,3.0406518E0,1.9774383E0,-1.6324235E-2,-1.6284815E0,-3.8385965E-2,-7.2019976E-1,3.3745968E0,-1.8568434E0,-7.0078033E-1,1.3445401E0,-6.802164E-1,2.4246297E0,7.6141315E0,9.184368E-1,-2.3085372E0,8.033365E0,7.205575E-1,-2.4909836E-3,-3.0318887E0,1.5935987E0,6.626963E0,8.315478E-1,-2.422588E0,5.5262227E0,9.956738E-1,-1.2006183E0,2.67926E-1,3.0990348E0,-2.3469315E-1,1.1942954E0,1.4429541E-1,-3.1185112E0,-1.5052375E0,5.8581233E-1,-1.4633371E0,1.0849241E0,-8.880325E-1,3.724695E0,8.85093E-1,4.753051E-1,-1.1903973E0,-5.6837904E-1,4.265242E-1],"categories":[],"categories_nodes":[],"categories_segments":[],"categories_sizes":[],"default_left":[0,0,0,0,0,0,0,0,0,0,0,0,0,0,0,0,0,0,0,0,0,0,0,0,0,0,0,0,0,0,0,0,0,0,0,0,0,0,0,0,0,0,0,0,0,0,0,0,0,0,0,0,0,0,0,0,0,0,0,0,0,0,0,0,0,0,0,0,0,0,0,0,0,0,0,0,0,0,0,0,0,0,0,0,0,0,0,0,0,0,0,0,0,0,0,0,0,0,0],"id":5,"left_children":[1,3,5,7,9,11,13,15,17,19,21,23,25,27,29,-1,31,33,35,37,-1,39,41,43,45,47,49,51,53,-1,55,57,59,61,-1,63,65,67,-1,69,71,73,75,77,79,81,83,85,87,-1,-1,89,91,93,95,97,-1,-1,-1,-1,-1,-1,-1,-1,-1,-1,-1,-1,-1,-1,-1,-1,-1,-1,-1,-1,-1,-1,-1,-1,-1,-1,-1,-1,-1,-1,-1,-1,-1,-1,-1,-1,-1,-1,-1,-1,-1,-1,-1],"loss_changes":[1.137662E3,1.8852562E3,9.2919244E2,3.3631384E2,2.3858628E3,1.1832488E3,8.036959E2,8.88022E2,3.3195026E2,5.032444E2,1.5803344E3,4.5133347E2,1.9596399E2,4.629308E2,3.1741916E2,0E0,1.3633682E2,8.2343005E2,5.463605E2,4.8303735E2,0E0,1.0323127E3,1.0175239E3,5.0896375E2,4.6270178E2,3.207301E2,2.7772134E2,2.92042E2,5.1086908E2,0E0,1.8096857E2,1.1801828E2,3.6534477E1,3.6135883E2,0E0,1.082399E2,8.2981067E2,1.6565308E2,0E0,7.8093945E2,1.7770297E3,6.97507E2,3.1209778E1,1.8800488E2,1.0816631E3,3.1166446E2,1.20048645E2,5.613611E0,1.8400757E1,0E0,0E0,1.557351E2,9.46576E2,1.654779E1,1.0501666E2,2.0137213E1,0E0,0E0,0E0,0E0,0E0,0E0,0E0,0E0,0E0,0E0,0E0,0E0,0E0,0E0,0E0,0E0,0E0,0E0,0E0,0E0,0E0,0E0,0E0,0E0,0E0,0E0,0E0,0E0,0E0,0E0,0E0,0E0,0E0,0E0,0E0,0E0,0E0,0E0,0E0,0E0,0E0,0E0,0E0],"parents":[2147483647,0,0,1,1,2,2,3,3,4,4,5,5,6,6,7,7,8,8,9,9,10,10,11,11,12,12,13,13,14,14,16,16,17,17,18,18,19,19,21,21,22,22,23,23,24,24,25,25,26,26,27,27,28,28,30,30,31,31,32,32,33,33,35,35,36,36,37,37,39,39,40,40,41,41,42,42,43,43,44,44,45,45,46,46,47,47,48,48,51,51,52,52,53,53,54,54,55,55],"right_children":[2,4,6,8,10,12,14,16,18,20,22,24,26,28,30,-1,32,34,36,38,-1,40,42,44,46,48,50,52,54,-1,56,58,60,62,-1,64,66,68,-1,70,72,74,76,78,80,82,84,86,88,-1,-1,90,92,94,96,98,-1,-1,-1,-1,-1,-1,-1,-1,-1,-1,-1,-1,-1,-1,-1,-1,-1,-1,-1,-1,-1,-1,-1,-1,-1,-1,-1,-1,-1,-1,-1,-1,-1,-1,-1,-1,-1,-1,-1,-1,-1,-1,-1],"split_conditions":[2.5024893E2,1.1861035E2,1E-1,1.1874544E1,1.2069966E2,3.3498892E2,1.7934998E1,4.219928E0,1E-1,4.1000004E0,1E0,1.4182355E1,1.4910001E1,4.138747E1,1.8516249E1,6.77599E0,1.0966713E1,2.6836306E1,6.164418E1,7.922499E0,-7.967606E-1,8.000001E-1,4.7242367E1,2.6109296E2,3.7777702E1,1.2287555E1,1.288981E1,4.6725E0,2.0000002E0,4.016963E0,1.9180834E1,2.6103456E1,1.1891667E0,2.5189713E1,-3.6512268E0,1.5778518E1,2.3E0,2.0808332E0,8.9091533E-1,3.209052E1,2.0808332E0,1.94E1,3.814167E0,9.693296E0,2.769428E2,2.7891667E0,5.6349998E0,7.079167E-1,3.495703E2,-1.8122816E0,1.5491191E0,1.3849476E1,7.151667E0,1.1000001E0,2.7260934E2,1.8676664E1,3.0406518E0,1.9774383E0,-1.6324235E-2,-1.6284815E0,-3.8385965E-2,-7.2019976E-1,3.3745968E0,-1.8568434E0,-7.0078033E-1,1.3445401E0,-6.802164E-1,2.4246297E0,7.6141315E0,9.184368E-1,-2.3085372E0,8.033365E0,7.205575E-1,-2.4909836E-3,-3.0318887E0,1.5935987E0,6.626963E0,8.315478E-1,-2.422588E0,5.5262227E0,9.956738E-1,-1.2006183E0,2.67926E-1,3.0990348E0,-2.3469315E-1,1.1942954E0,1.4429541E-1,-3.1185112E0,-1.5052375E0,5.8581233E-1,-1.4633371E0,1.0849241E0,-8.880325E-1,3.724695E0,8.85093E-1,4.753051E-1,-1.1903973E0,-5.6837904E-1,4.265242E-1],"split_indices":[3,3,1,2,3,3,0,3,1,1,1,2,0,2,0,0,2,2,3,0,0,1,2,3,2,2,2,0,1,0,0,3,0,2,0,2,1,0,0,2,0,1,0,2,3,0,0,0,3,0,0,2,0,1,3,0,0,0,0,0,0,0,0,0,0,0,0,0,0,0,0,0,0,0,0,0,0,0,0,0,0,0,0,0,0,0,0,0,0,0,0,0,0,0,0,0,0,0,0],"split_type":[0,0,0,0,0,0,0,0,0,0,0,0,0,0,0,0,0,0,0,0,0,0,0,0,0,0,0,0,0,0,0,0,0,0,0,0,0,0,0,0,0,0,0,0,0,0,0,0,0,0,0,0,0,0,0,0,0,0,0,0,0,0,0,0,0,0,0,0,0,0,0,0,0,0,0,0,0,0,0,0,0,0,0,0,0,0,0,0,0,0,0,0,0,0,0,0,0,0,0],"sum_hessian":[1.328E3,8.5E2,4.78E2,2.55E2,5.95E2,1.76E2,3.02E2,1.7E1,2.38E2,1E1,5.85E2,1.53E2,2.3E1,2.92E2,1E1,1E0,1.6E1,1.2E2,1.18E2,9E0,1E0,2.77E2,3.08E2,3.6E1,1.17E2,1.6E1,7E0,2.76E2,1.6E1,3E0,7E0,1.1E1,5E0,1.12E2,8E0,4.7E1,7.1E1,7E0,2E0,2.65E2,1.2E1,3.06E2,2E0,5E0,3.1E1,1.11E2,6E0,2E0,1.4E1,4E0,3E0,7E1,2.06E2,4E0,1.2E1,6E0,1E0,3E0,8E0,3E0,2E0,1.11E2,1E0,9E0,3.8E1,3.6E1,3.5E1,2E0,5E0,2.59E2,6E0,4E0,8E0,3E2,6E0,1E0,1E0,2E0,3E0,5E0,2.6E1,1.4E1,9.7E1,5E0,1E0,1E0,1E0,1E1,4E0,3E0,6.7E1,2.4E1,1.82E2,3E0,1E0,7E0,5E0,4E0,2E0],"tree_param":{"num_deleted":"0","num_feature":"4","num_nodes":"99","size_leaf_vector":"1"}},{"base_weights":[1.0692923E-1,-1.4260802E-1,2.2791264E0,9.230353E-1,-1.1729046E0,1.5040579E1,1.6817943E0,-8.7157243E-1,2.342776E0,-5.575441E-2,-1.8448162E0,6.7593102E0,6.320623E0,5.424495E0,7.5663525E-1,-2.1433814E-1,-5.5476685E0,4.891309E0,5.794624E-1,-1.0345457E0,2.5397043E0,-1.6005671E0,-6.3884544E0,3.6103675E0,-1.359965E0,-3.3090565E0,1.2049704E1,-1.2699641E0,3.2741213E0,-1.60689E0,1.4748529E0,1.5093716E0,-7.962906E0,2.6809013E0,1.00187435E1,-9.922958E0,9.65375E-1,-2.6180527E0,1.7600411E0,4.780835E0,-3.3287246E0,-5.1269593E0,-1.3115726E0,-7.7416883E0,-4.024674E0,-5.537522E0,-1.5767097E-1,6.9687037E0,5.872772E0,-4.919852E0,1.6908255E-1,5.707691E-1,4.4856215E0,-5.2992684E-1,2.7502038E0,1.1055065E0,-7.382507E-1,-5.0603586E-1,1.7778796E0,-3.8005452E0,-9.0202945E-1,1.9624419E0,-6.4194727E-1,5.346644E0,1.2221663E0,-2.0679761E-1,-3.404103E0,6.85274E-1,-2.822298E-1,4.351733E-3,-1.7203315E0,-1.3556144E0,1.0664033E0,2.7982345E0,2.774077E-1,1.0444186E0,-1.6569433E0,-4.668129E0,-9.523274E-1,5.399521E-1,-5.3646356E-1,-3.8045151E0,-1.7938541E0,-2.5065768E-1,-1.2956631E0,-1.9148588E0,-6.982155E-2,1.0861218E0,-8.855433E-1,2.1062741E0,-8.4129643E-1,-2.2131057E0,7.358256E-1,9.7011256E-1,-3.661189E-1,-3.5510492E-1,1.4001901E0,1.4780287E0,1.6698504E-2],"categories":[],"categories_nodes":[],"categories_segments":[],"categories_sizes":[],"default_left":[0,0,0,0,0,0,0,0,0,0,0,0,0,0,0,0,0,0,0,0,0,0,0,0,0,0,0,0,0,0,0,0,0,0,0,0,0,0,0,0,0,0,0,0,0,0,0,0,0,0,0,0,0,0,0,0,0,0,0,0,0,0,0,0,0,0,0,0,0,0,0,0,0,0,0,0,0,0,0,0,0,0,0,0,0,0,0,0,0,0,0,0,0,0,0,0,0,0,0],"id":6,"left_children":[1,3,5,7,9,11,13,15,17,19,21,23,-1,25,27,29,31,33,35,37,39,41,43,-1,-1,45,47,49,51,53,55,57,59,61,63,65,67,69,71,73,75,77,79,81,83,85,87,-1,89,91,93,95,97,-1,-1,-1,-1,-1,-1,-1,-1,-1,-1,-1,-1,-1,-1,-1,-1,-1,-1,-1,-1,-1,-1,-1,-1,-1,-1,-1,-1,-1,-1,-1,-1,-1,-1,-1,-1,-1,-1,-1,-1,-1,-1,-1,-1,-1,-1],"loss_changes":[7.207016E2,1.3109116E3,1.019032E3,1.497646E3,4.5552722E2,1.5711487E2,4.529579E2,7.9786646E2,1.471153E3,5.843819E2,4.1038147E2,2.9283875E2,0E0,1.5442747E3,5.500652E2,5.4104346E2,5.574407E2,1.4918594E3,7.999176E2,7.4362427E2,8.4448486E2,3.6117358E2,2.9618408E1,0E0,0E0,8.339993E1,8.993889E2,3.159734E2,1.5464514E2,2.3276755E2,9.137159E2,1.3705014E2,5.21625E2,1.7820193E3,1.782999E3,8.422241E1,4.772865E2,8.7791833E2,7.0341565E2,7.9786487E2,2.8822495E2,5.006408E2,5.0003064E2,1.9926636E1,4.835785E0,2.9904907E1,7.4025604E1,0E0,1.2927673E2,3.2606116E2,1.9130862E2,1.205193E2,6.4215515E1,0E0,0E0,0E0,0E0,0E0,0E0,0E0,0E0,0E0,0E0,0E0,0E0,0E0,0E0,0E0,0E0,0E0,0E0,0E0,0E0,0E0,0E0,0E0,0E0,0E0,0E0,0E0,0E0,0E0,0E0,0E0,0E0,0E0,0E0,0E0,0E0,0E0,0E0,0E0,0E0,0E0,0E0,0E0,0E0,0E0,0E0],"parents":[2147483647,0,0,1,1,2,2,3,3,4,4,5,5,6,6,7,7,8,8,9,9,10,10,11,11,13,13,14,14,15,15,16,16,17,17,18,18,19,19,20,20,21,21,22,22,25,25,26,26,27,27,28,28,29,29,30,30,31,31,32,32,33,33,34,34,35,35,36,36,37,37,38,38,39,39,40,40,41,41,42,42,43,43,44,44,45,45,46,46,48,48,49,49,50,50,51,51,52,52],"right_children":[2,4,6,8,10,12,14,16,18,20,22,24,-1,26,28,30,32,34,36,38,40,42,44,-1,-1,46,48,50,52,54,56,58,60,62,64,66,68,70,72,74,76,78,80,82,84,86,88,-1,90,92,94,96,98,-1,-1,-1,-1,-1,-1,-1,-1,-1,-1,-1,-1,-1,-1,-1,-1,-1,-1,-1,-1,-1,-1,-1,-1,-1,-1,-1,-1,-1,-1,-1,-1,-1,-1,-1,-1,-1,-1,-1,-1,-1,-1,-1,-1,-1,-1],"split_conditions":[1.78225E1,8.170417E0,1.7895414E1,3.0162504E0,3E-1,4.6999993E0,1.3441071E1,2.5849998E0,2.261419E1,2.1349546E1,1.731E1,8E-1,6.320623E0,1.1090103E1,1.9630833E1,6.1E-1,1.98E1,2.046941E1,2.3023117E1,1.5743331E1,2.709822E1,4E-1,2.0797939E2,3.6103675E0,-1.359965E0,1.9630833E1,1.8426668E1,1E-1,1.2491881E2,4.1947342E1,2.3010977E2,1.8193361E1,2.7661497E1,1.675064E1,1.8368306E2,3.1245835E0,3.4E0,1.6375053E1,1.288981E1,1.1668334E1,1.4750562E2,1.3441071E1,1.7068707E1,5E-1,5E-1,1.0966713E1,9.007196E0,6.9687037E0,3.5244183E2,2.9878235E2,1.5897101E2,1.0000001E0,3E0,-5.2992684E-1,2.7502038E0,1.1055065E0,-7.382507E-1,-5.0603586E-1,1.7778796E0,-3.8005452E0,-9.0202945E-1,1.9624419E0,-6.4194727E-1,5.346644E0,1.2221663E0,-2.0679761E-1,-3.404103E0,6.85274E-1,-2.822298E-1,4.351733E-3,-1.7203315E0,-1.3556144E0,1.0664033E0,2.7982345E0,2.774077E-1,1.0444186E0,-1.6569433E0,-4.668129E0,-9.523274E-1,5.399521E-1,-5.3646356E-1,-3.8045151E0,-1.7938541E0,-2.5065768E-1,-1.2956631E0,-1.9148588E0,-6.982155E-2,1.0861218E0,-8.855433E-1,2.1062741E0,-8.4129643E-1,-2.2131057E0,7.358256E-1,9.7011256E-1,-3.661189E-1,-3.5510492E-1,1.4001901E0,1.4780287E0,1.6698504E-2],"split_indices":[0,0,0,0,1,1,2,0,2,2,0,1,0,2,0,0,2,2,2,0,2,1,3,0,0,0,0,1,3,2,3,2,2,2,3,0,1,2,2,0,3,2,2,1,1,2,2,0,3,3,3,1,1,0,0,0,0,0,0,0,0,0,0,0,0,0,0,0,0,0,0,0,0,0,0,0,0,0,0,0,0,0,0,0,0,0,0,0,0,0,0,0,0,0,0,0,0,0,0],"split_type":[0,0,0,0,0,0,0,0,0,0,0,0,0,0,0,0,0,0,0,0,0,0,0,0,0,0,0,0,0,0,0,0,0,0,0,0,0,0,0,0,0,0,0,0,0,0,0,0,0,0,0,0,0,0,0,0,0,0,0,0,0,0,0,0,0,0,0,0,0,0,0,0,0,0,0,0,0,0,0,0,0,0,0,0,0,0,0,0,0,0,0,0,0,0,0,0,0,0,0],"sum_hessian":[1.328E3,1.192E3,1.36E2,5.86E2,6.06E2,5E0,1.31E2,2.59E2,3.27E2,2.28E2,3.78E2,3E0,2E0,2.5E1,1.06E2,2.28E2,3.1E1,1.33E2,1.94E2,1.66E2,6.2E1,3.6E2,1.8E1,2E0,1E0,1.1E1,1.4E1,5.9E1,4.7E1,1.25E2,1.03E2,8E0,2.3E1,9.4E1,3.9E1,6E0,1.88E2,1.06E2,6E1,4.5E1,1.7E1,2.6E1,3.34E2,1E1,8E0,6E0,5E0,4E0,1E1,1.6E1,4.3E1,1.5E1,3.2E1,1.24E2,1E0,6.6E1,3.7E1,5E0,3E0,1.1E1,1.2E1,5.2E1,4.2E1,1.6E1,2.3E1,1E0,5E0,1.11E2,7.7E1,5.8E1,4.8E1,1.3E1,4.7E1,2E1,2.5E1,4E0,1.3E1,3E0,2.3E1,4.4E1,2.9E2,1E0,9E0,1E0,7E0,5E0,1E0,2E0,3E0,9E0,1E0,1.2E1,4E0,1.3E1,3E1,1.1E1,4E0,2.9E1,3E0],"tree_param":{"num_deleted":"0","num_feature":"4","num_nodes":"99","size_leaf_vector":"1"}},{"base_weights":[8.103684E-2,-1.1902419E0,3.7669015E-1,1.9770977E-1,-1.953979E0,2.423033E0,-1.11860305E-1,-3.0415562E-1,1.1063854E1,-3.3198993E0,-9.556994E-1,1.7708712E0,1.3941671E1,-7.0036716E0,-2.3783991E-2,1.1815288E1,-7.283224E-1,-4.2596313E-1,4.709517E0,-2.3729062E0,-9.264309E0,1.2260811E0,-2.8620608E0,6.2301226E0,-3.1580966E-2,4.740737E0,-6.9992584E-1,1.1699156E0,-1.400998E1,-9.5849186E-2,7.681157E0,5.4652247E0,-1.483449E-1,-2.822789E-1,-5.658196E0,-3.0064287E0,3.8298686E0,-7.002754E-1,-2.9516354E0,-2.1501234E0,5.553843E0,-4.1128707E0,2.0602365E0,3.3556917E0,1.4054815E1,-4.7816305E0,4.8417312E-1,2.1386423E0,-5.1169205E-1,-4.95947E0,-1.7933625E0,1.6647482E0,-3.6895695E-1,7.297214E-1,1.4450163E1,-3.8265142E-1,6.5744007E-1,-2.0481095E0,2.0322305E-1,3.416699E-2,-1.62775E0,-1.5748914E0,4.3977766E0,-2.2962664E-1,-2.3438354E0,-5.5942273E-1,3.537935E0,-3.0374272E0,-1.0115422E0,1.0507185E0,-1.1124986E-1,2.2358096E0,-1.0046138E0,2.5837052E0,6.965183E0,3.5283973E0,-2.0876648E0,2.471866E0,-2.9002411E-2,2.4250527E-1,9.194275E-1,4.404116E-1,-6.70673E-1,9.004385E-1,-4.0559062E-1,-2.0284094E-1,4.494337E-1,1.114189E0,-7.4932826E-1,5.2289886E0,8.266145E-1],"categories":[],"categories_nodes":[],"categories_segments":[],"categories_sizes":[],"default_left":[0,0,0,0,0,0,0,0,0,0,0,0,0,0,0,0,0,0,0,0,0,0,0,0,0,0,0,0,0,0,0,0,0,0,0,0,0,0,0,0,0,0,0,0,0,0,0,0,0,0,0,0,0,0,0,0,0,0,0,0,0,0,0,0,0,0,0,0,0,0,0,0,0,0,0,0,0,0,0,0,0,0,0,0,0,0,0,0,0,0,0],"id":7,"left_children":[1,3,5,7,9,11,13,15,17,19,21,23,25,27,29,31,33,-1,-1,35,37,39,41,43,45,-1,-1,47,49,51,53,-1,-1,55,57,59,61,-1,-1,63,65,67,69,71,73,75,77,79,81,-1,-1,83,85,87,89,-1,-1,-1,-1,-1,-1,-1,-1,-1,-1,-1,-1,-1,-1,-1,-1,-1,-1,-1,-1,-1,-1,-1,-1,-1,-1,-1,-1,-1,-1,-1,-1,-1,-1,-1,-1],"loss_changes":[4.9996335E2,2.6645386E2,1.0789924E3,4.9416586E2,2.1772559E2,1.5378105E3,5.291421E2,4.5584323E2,2.53715E2,3.6081012E2,3.98639E2,1.591639E3,3.6999048E2,6.4632385E2,4.7936874E2,2.4543433E2,1.8531253E2,0E0,0E0,2.4729013E2,1.2864136E1,6.6945483E2,3.224733E2,1.234854E3,3.501949E2,0E0,0E0,1.0868436E1,2.269812E1,4.1172626E2,3.6588983E2,0E0,0E0,1.968973E2,5.6461685E1,4.158302E2,6.669086E2,0E0,0E0,1.9788834E2,9.477228E2,1.4852405E2,3.986466E1,1.2060804E3,5.480403E2,5.861002E2,5.8190216E2,2.450615E0,1.3520393E1,0E0,0E0,4.6779373E2,4.2599518E2,5.7434525E1,9.136621E1,0E0,0E0,0E0,0E0,0E0,0E0,0E0,0E0,0E0,0E0,0E0,0E0,0E0,0E0,0E0,0E0,0E0,0E0,0E0,0E0,0E0,0E0,0E0,0E0,0E0,0E0,0E0,0E0,0E0,0E0,0E0,0E0,0E0,0E0,0E0,0E0],"parents":[2147483647,0,0,1,1,2,2,3,3,4,4,5,5,6,6,7,7,8,8,9,9,10,10,11,11,12,12,13,13,14,14,15,15,16,16,19,19,20,20,21,21,22,22,23,23,24,24,27,27,28,28,29,29,30,30,33,33,34,34,35,35,36,36,39,39,40,40,41,41,42,42,43,43,44,44,45,45,46,46,47,47,48,48,51,51,52,52,53,53,54,54],"right_children":[2,4,6,8,10,12,14,16,18,20,22,24,26,28,30,32,34,-1,-1,36,38,40,42,44,46,-1,-1,48,50,52,54,-1,-1,56,58,60,62,-1,-1,64,66,68,70,72,74,76,78,80,82,-1,-1,84,86,88,90,-1,-1,-1,-1,-1,-1,-1,-1,-1,-1,-1,-1,-1,-1,-1,-1,-1,-1,-1,-1,-1,-1,-1,-1,-1,-1,-1,-1,-1,-1,-1,-1,-1,-1,-1,-1],"split_conditions":[1.1633304E2,1.6375053E1,1.6612398E2,4.6999993E0,1E-1,1.6437729E2,1.6803415E2,4.219928E0,1.4021525E1,2.6836306E1,1.7E0,5.7537503E0,1.8426668E1,1E-1,4.7242367E1,3.2475004E0,9.856751E1,-4.2596313E-1,4.709517E0,2.429133E1,-3.3920832E0,2.2450264E1,1.578708E1,4.1287503E0,6.7204175E0,4.740737E0,-6.9992584E-1,1.4773164E1,1.9296133E1,1.9277193E2,4.1287503E0,5.4652247E0,-1.483449E-1,6.643216E1,6.6391664E0,4.04125E0,7.6516914E1,-7.002754E-1,-2.9516354E0,2.1746504E1,2.4724996E0,1.8089775E1,5.6E0,1.420851E2,1.5003879E2,1.1979272E2,7.2766666E0,1.4168332E1,5.6349998E0,-4.95947E0,-1.7933625E0,1.4682915E1,1.6674582E1,3.814167E0,5.489026E1,-3.8265142E-1,6.5744007E-1,-2.0481095E0,2.0322305E-1,3.416699E-2,-1.62775E0,-1.5748914E0,4.3977766E0,-2.2962664E-1,-2.3438354E0,-5.5942273E-1,3.537935E0,-3.0374272E0,-1.0115422E0,1.0507185E0,-1.1124986E-1,2.2358096E0,-1.0046138E0,2.5837052E0,6.965183E0,3.5283973E0,-2.0876648E0,2.471866E0,-2.9002411E-2,2.4250527E-1,9.194275E-1,4.404116E-1,-6.70673E-1,9.004385E-1,-4.0559062E-1,-2.0284094E-1,4.494337E-1,1.114189E0,-7.4932826E-1,5.2289886E0,8.266145E-1],"split_indices":[3,2,3,1,1,3,3,3,2,2,1,0,0,1,2,0,3,0,0,2,0,2,0,0,0,0,0,2,2,3,0,0,0,3,0,0,3,0,0,2,0,2,1,3,3,3,0,0,0,0,0,0,0,0,2,0,0,0,0,0,0,0,0,0,0,0,0,0,0,0,0,0,0,0,0,0,0,0,0,0,0,0,0,0,0,0,0,0,0,0,0],"split_type":[0,0,0,0,0,0,0,0,0,0,0,0,0,0,0,0,0,0,0,0,0,0,0,0,0,0,0,0,0,0,0,0,0,0,0,0,0,0,0,0,0,0,0,0,0,0,0,0,0,0,0,0,0,0,0,0,0,0,0,0,0,0,0,0,0,0,0,0,0,0,0,0,0,0,0,0,0,0,0,0,0,0,0,0,0,0,0,0,0,0,0],"sum_hessian":[1.328E3,2.5E2,1.078E3,8.9E1,1.61E2,2.07E2,8.71E2,8.6E1,3E0,6.7E1,9.4E1,1.97E2,1E1,1E1,8.61E2,2E0,8.4E1,1E0,2E0,5.9E1,8E0,4.4E1,5E1,5.6E1,1.41E2,9E0,1E0,5E0,5E0,8.54E2,7E0,1E0,1E0,7.8E1,6E0,5.4E1,5E0,1E0,7E0,2.5E1,1.9E1,4E1,1E1,4.2E1,1.4E1,1.3E1,1.28E2,3E0,2E0,3E0,2E0,1.14E2,7.4E2,4E0,3E0,5.6E1,2.2E1,5E0,1E0,2.4E1,3E1,3E0,2E0,2.1E1,4E0,9E0,1E1,3E0,3.7E1,6E0,4E0,2.6E1,1.6E1,1E1,4E0,1E0,1.2E1,8E0,1.2E2,2E0,1E0,1E0,1E0,7.9E1,3.5E1,6.36E2,1.04E2,2E0,2E0,2E0,1E0],"tree_param":{"num_deleted":"0","num_feature":"4","num_nodes":"91","size_leaf_vector":"1"}},{"base_weights":[7.399344E-2,1.4991184E-1,-3.7364519E0,7.1122915E-2,3.8737016E0,-5.084567E0,2.942545E0,5.2171654E-1,-6.3567376E-1,6.984954E0,9.1903585E-1,-5.3801594E0,1.6843015E-1,1.6534014E0,-1.8212892E-1,8.066262E-1,-4.5105424E0,-8.879263E-1,2.8329473E0,3.0298655E0,-1.8310929E-2,-3.0653691E0,4.7885613E0,-2.512749E0,-3.9205227E0,3.9310318E-1,3.5765815E0,-7.8663225E0,-2.142896E0,2.4182622E0,-1.1052983E0,1.7450123E0,4.0479817E0,-7.6835895E-1,1.2577095E0,1.2338624E0,-1.7675043E0,8.1463784E-1,4.890904E0,-1.531949E-1,-4.1138043E0,8.0570154E-2,1.9280435E0,1.4121633E0,-1.4190265E0,-2.600953E0,7.485017E-1,-1.9546431E0,1.6657898E-1,2.811109E0,-9.120903E-1,-3.5433775E-1,2.2194955E0,1.690621E0,-8.385061E-2,6.9350624E-1,4.074631E-2,-3.2629836E-1,1.2297649E0,8.4106505E-1,-8.3152854E-1,-1.2826893E0,-2.7723455E-1],"categories":[],"categories_nodes":[],"categories_segments":[],"categories_sizes":[],"default_left":[0,0,0,0,0,0,0,0,0,0,0,0,0,0,0,0,0,0,0,0,0,0,0,0,0,0,0,0,0,0,0,0,0,0,0,0,0,0,0,0,0,0,0,0,0,0,0,0,0,0,0,0,0,0,0,0,0,0,0,0,0,0,0],"id":8,"left_children":[1,3,5,7,9,11,13,15,17,19,21,23,-1,-1,-1,25,27,29,31,-1,33,35,37,-1,39,41,43,45,47,49,51,53,-1,-1,55,57,-1,59,-1,-1,61,-1,-1,-1,-1,-1,-1,-1,-1,-1,-1,-1,-1,-1,-1,-1,-1,-1,-1,-1,-1,-1,-1],"loss_changes":[3.8501712E2,3.8230942E2,2.4906702E2,4.0734656E2,2.4178375E2,3.9736755E1,4.8937378E1,1.1233887E3,4.3824982E2,2.8374542E2,2.4594504E2,5.8986694E1,0E0,0E0,0E0,8.462197E2,3.168459E2,3.3685568E2,3.7077722E2,0E0,1.944511E1,1.0447725E2,3.5277936E2,0E0,8.444336E0,4.8293597E2,9.238744E2,1.6316553E2,3.1036365E2,1.1289946E3,2.9051978E2,2.5361197E2,0E0,0E0,4.4158063E0,3.1066504E1,0E0,5.7702007E1,0E0,0E0,3.7914886E0,0E0,0E0,0E0,0E0,0E0,0E0,0E0,0E0,0E0,0E0,0E0,0E0,0E0,0E0,0E0,0E0,0E0,0E0,0E0,0E0,0E0,0E0],"parents":[2147483647,0,0,1,1,2,2,3,3,4,4,5,5,6,6,7,7,8,8,9,9,10,10,11,11,15,15,16,16,17,17,18,18,20,20,21,21,22,22,24,24,25,25,26,26,27,27,28,28,29,29,30,30,31,31,34,34,35,35,37,37,40,40],"right_children":[2,4,6,8,10,12,14,16,18,20,22,24,-1,-1,-1,26,28,30,32,-1,34,36,38,-1,40,42,44,46,48,50,52,54,-1,-1,56,58,-1,60,-1,-1,62,-1,-1,-1,-1,-1,-1,-1,-1,-1,-1,-1,-1,-1,-1,-1,-1,-1,-1,-1,-1,-1,-1],"split_conditions":[1.51E1,4.1947342E1,3.7777702E1,2.4196094E2,4E0,1.78225E1,4.0384235E1,3.301418E1,1.78225E1,5.3704166E0,5.3349996E0,2.199538E1,1.6843015E-1,1.6534014E0,-1.8212892E-1,2.1526352E2,3.4979332E1,1.2287555E1,6.2000003E0,3.0298655E0,2.5953748E2,3.814167E0,9.1E0,-2.512749E0,1.69E1,3.165135E1,6.899999E0,9.500002E0,5.1558332E0,8.466251E0,1.2600001E1,1.4255272E1,4.0479817E0,-7.6835895E-1,5.8808327E0,3.46E0,-1.7675043E0,1.3949584E1,4.890904E0,-1.531949E-1,3.6721764E1,8.0570154E-2,1.9280435E0,1.4121633E0,-1.4190265E0,-2.600953E0,7.485017E-1,-1.9546431E0,1.6657898E-1,2.811109E0,-9.120903E-1,-3.5433775E-1,2.2194955E0,1.690621E0,-8.385061E-2,6.9350624E-1,4.074631E-2,-3.2629836E-1,1.2297649E0,8.4106505E-1,-8.3152854E-1,-1.2826893E0,-2.7723455E-1],"split_indices":[1,2,2,3,1,0,2,2,0,0,0,2,0,0,0,3,2,2,1,0,3,0,1,0,1,2,1,1,0,0,1,2,0,0,0,0,0,0,0,0,2,0,0,0,0,0,0,0,0,0,0,0,0,0,0,0,0,0,0,0,0,0,0],"split_type":[0,0,0,0,0,0,0,0,0,0,0,0,0,0,0,0,0,0,0,0,0,0,0,0,0,0,0,0,0,0,0,0,0,0,0,0,0,0,0,0,0,0,0,0,0,0,0,0,0,0,0,0,0,0,0,0,0,0,0,0,0,0,0],"sum_hessian":[1.328E3,1.303E3,2.5E1,1.277E3,2.6E1,2.1E1,4E0,7.8E2,4.97E2,1.2E1,1.4E1,2E1,1E0,2E0,2E0,7.39E2,4.1E1,4.64E2,3.3E1,8E0,4E0,7E0,7E0,5E0,1.5E1,6.44E2,9.5E1,1.6E1,2.5E1,2.8E1,4.36E2,3.1E1,2E0,1E0,3E0,3E0,4E0,6E0,1E0,1E0,1.4E1,6.32E2,1.2E1,8.4E1,1.1E1,1.5E1,1E0,9E0,1.6E1,1.2E1,1.6E1,4.33E2,3E0,1E1,2.1E1,1E0,2E0,2E0,1E0,4E0,2E0,1.3E1,1E0],"tree_param":{"num_deleted":"0","num_feature":"4","num_nodes":"63","size_leaf_vector":"1"}},{"base_weights":[6.0995005E-2,9.631405E-3,5.259831E0,5.9325355E-1,-4.6628314E-1,2.839829E0,2.5691605E0,-3.3852142E-1,1.923566E0,-4.4757047E0,-3.6962616E-1,1.7287576E0,1.181555E0,1.1169183E0,-1.2618918E0,-1.2524203E0,2.9206607E0,-6.65381E0,-1.1936095E0,1.0212398E0,-6.860764E-1,-1.2379519E-1,1.3520485E0,-1.1823171E0,3.9632294E0,-9.386475E0,-8.5941523E-1,-5.1693263E0,1.5811533E0,1.115558E1,2.1330621E0,-2.6063333E0,-1.4309142E0,-1.2446086E0,4.8286852E-1,-2.601788E-1,2.8769958E0,-1.209553E0,1.6738139E-1,-6.89373E-1,9.9401094E-2,-4.4244903E-1,3.1134226E0,6.1071515E-1,2.054997E0,-2.977297E0,-6.8187565E-1,2.0843431E-2,-6.436657E-1,-2.2432027E0,5.501286E-1,2.4874728E0,-1.8035219E0,3.7529888E0,-1.3740246E0,1.4540949E0,2.6190647E-1,2.1085253E-1,-7.12934E-1,6.0011244E-1,-5.1042885E-1,-5.982959E-1,1.0696015E0,2.3825357E0,3.719872E-2,-2.7947873E-1,-1.7623044E0,9.77518E-1,-2.0588206E-1,-2.6327306E-1,-4.6944812E-2],"categories":[],"categories_nodes":[],"categories_segments":[],"categories_sizes":[],"default_left":[0,0,0,0,0,0,0,0,0,0,0,0,0,0,0,0,0,0,0,0,0,0,0,0,0,0,0,0,0,0,0,0,0,0,0,0,0,0,0,0,0,0,0,0,0,0,0,0,0,0,0,0,0,0,0,0,0,0,0,0,0,0,0,0,0,0,0,0,0,0,0],"id":9,"left_children":[1,3,5,7,9,11,-1,13,15,17,19,-1,21,23,25,27,29,31,33,35,37,39,-1,41,43,45,47,49,51,53,55,-1,57,-1,59,61,63,65,67,69,-1,-1,-1,-1,-1,-1,-1,-1,-1,-1,-1,-1,-1,-1,-1,-1,-1,-1,-1,-1,-1,-1,-1,-1,-1,-1,-1,-1,-1,-1,-1],"loss_changes":[3.548334E2,3.66079E2,7.962518E1,7.344658E2,2.796986E2,3.6810936E1,0E0,4.7043405E2,7.7634717E2,1.135867E2,3.1319992E2,0E0,3.0942448E1,8.9471594E2,6.917035E2,6.630051E2,1.1825652E3,9.380054E1,4.1636368E1,3.1464456E2,2.5887946E2,1.7728907E0,0E0,2.7230472E2,3.254756E2,1.5703003E1,2.450593E2,4.177926E2,1.8331498E3,3.9829065E2,5.8052856E2,0E0,9.740408E0,0E0,2.329161E1,5.311953E2,7.5195703E2,4.6001166E2,5.8537946E2,1.6355038E-1,0E0,0E0,0E0,0E0,0E0,0E0,0E0,0E0,0E0,0E0,0E0,0E0,0E0,0E0,0E0,0E0,0E0,0E0,0E0,0E0,0E0,0E0,0E0,0E0,0E0,0E0,0E0,0E0,0E0,0E0,0E0],"parents":[2147483647,0,0,1,1,2,2,3,3,4,4,5,5,7,7,8,8,9,9,10,10,12,12,13,13,14,14,15,15,16,16,17,17,18,18,19,19,20,20,21,21,23,23,24,24,25,25,26,26,27,27,28,28,29,29,30,30,32,32,34,34,35,35,36,36,37,37,38,38,39,39],"right_children":[2,4,6,8,10,12,-1,14,16,18,20,-1,22,24,26,28,30,32,34,36,38,40,-1,42,44,46,48,50,52,54,56,-1,58,-1,60,62,64,66,68,70,-1,-1,-1,-1,-1,-1,-1,-1,-1,-1,-1,-1,-1,-1,-1,-1,-1,-1,-1,-1,-1,-1,-1,-1,-1,-1,-1,-1,-1,-1,-1],"split_conditions":[2.246625E1,8.287084E0,2.0188908E1,4.2225003E0,2.2802753E1,1.2768586E1,2.5691605E0,1.8733839E1,1.4518234E2,1.496E1,1.4618837E1,1.7287576E0,1.7585847E2,6.1E-1,1.9353138E1,1.8556595E1,1.6612398E2,3.3000002E0,1.1885453E1,1.353236E1,2.4122686E1,1.6418526E1,1.3520485E0,4.7999997E0,1.5856354E1,3.0369003E2,2.177393E2,7.151667E0,2.544566E1,3.1154043E1,2.2545315E1,-2.6063333E0,1.089125E1,-1.2446086E0,1.6599583E1,1.7770414E1,1.51641655E1,2.3587555E1,2.5992397E1,2.2722498E1,9.9401094E-2,-4.4244903E-1,3.1134226E0,6.1071515E-1,2.054997E0,-2.977297E0,-6.8187565E-1,2.0843431E-2,-6.436657E-1,-2.2432027E0,5.501286E-1,2.4874728E0,-1.8035219E0,3.7529888E0,-1.3740246E0,1.4540949E0,2.6190647E-1,2.1085253E-1,-7.12934E-1,6.0011244E-1,-5.1042885E-1,-5.982959E-1,1.0696015E0,2.3825357E0,3.719872E-2,-2.7947873E-1,-1.7623044E0,9.77518E-1,-2.0588206E-1,-2.6327306E-1,-4.6944812E-2],"split_indices":[0,0,2,0,3,2,0,2,3,0,2,0,3,0,2,2,3,1,2,2,2,2,0,1,2,3,3,0,2,2,2,0,0,0,0,0,0,2,2,0,0,0,0,0,0,0,0,0,0,0,0,0,0,0,0,0,0,0,0,0,0,0,0,0,0,0,0,0,0,0,0],"split_type":[0,0,0,0,0,0,0,0,0,0,0,0,0,0,0,0,0,0,0,0,0,0,0,0,0,0,0,0,0,0,0,0,0,0,0,0,0,0,0,0,0,0,0,0,0,0,0,0,0,0,0,0,0,0,0,0,0,0,0,0,0,0,0,0,0,0,0,0,0,0,0],"sum_hessian":[1.328E3,1.316E3,1.2E1,5.91E2,7.25E2,8E0,4E0,3.48E2,2.43E2,1.6E1,7.09E2,2E0,6E0,1.35E2,2.13E2,5.8E1,1.85E2,9E0,7E0,1.31E2,5.78E2,5E0,1E0,7.5E1,6E1,9E0,2.04E2,2.4E1,3.4E1,1.5E1,1.7E2,6E0,3E0,2E0,5E0,7.8E1,5.3E1,3.58E2,2.2E2,2E0,3E0,7.4E1,1E0,3.7E1,2.3E1,8E0,1E0,1.19E2,8.5E1,1.8E1,6E0,1.8E1,1.6E1,1.4E1,1E0,5.3E1,1.17E2,1E0,2E0,3E0,2E0,5.4E1,2.4E1,1.8E1,3.5E1,3.39E2,1.9E1,4.7E1,1.73E2,1E0,1E0],"tree_param":{"num_deleted":"0","num_feature":"4","num_nodes":"71","size_leaf_vector":"1"}},{"base_weights":[4.791634E-2,1.6822852E-1,-1.9659464E0,1.1327376E-1,1.15891E1,-2.3483698E0,1.622749E0,4.6965916E-2,3.00546E0,7.2460985E-1,1.2940774E1,-1.9151231E0,-6.794898E0,7.324023E-1,-2.375643E-1,4.365565E0,-3.5093457E-1,4.367134E0,9.7131276E-1,-3.8186018E0,-2.685565E-1,-2.3642004E0,-2.0490761E-1,5.6168306E-1,1.0682772E1,-2.8733044E0,-3.4015235E-2,3.1504254E0,4.1179814E0,-1.8823265E0,2.033887E0,-2.7109404E0,-2.3946104E0,3.2316563E0,-1.2072328E0,-4.288717E-1,3.2254744E-1,1.1739606E1,-8.5004467E-1,1.7174858E-1,-1.5193994E0,5.5665422E-2,-6.607554E-1,2.1356258E0,-3.3988324E-1,-6.375676E-2,-6.521349E-1,-3.841591E-2,1.277956E0,-5.0693506E-1,-1.5723764E0,-7.414892E-1,6.6027737E-1],"categories":[],"categories_nodes":[],"categories_segments":[],"categories_sizes":[],"default_left":[0,0,0,0,0,0,0,0,0,0,0,0,0,0,0,0,0,0,0,0,0,0,0,0,0,0,0,0,0,0,0,0,0,0,0,0,0,0,0,0,0,0,0,0,0,0,0,0,0,0,0,0,0],"id":10,"left_children":[1,3,5,7,9,11,-1,13,15,-1,17,19,21,23,25,27,29,-1,-1,31,33,-1,-1,35,37,39,41,43,-1,45,47,49,-1,-1,51,-1,-1,-1,-1,-1,-1,-1,-1,-1,-1,-1,-1,-1,-1,-1,-1,-1,-1],"loss_changes":[3.223371E2,7.8636456E2,2.2423383E2,2.3957713E2,4.31427E1,1.2569095E2,0E0,2.3869244E2,1.2935336E2,0E0,3.1285461E1,2.0896622E2,3.4433807E1,6.0384E2,4.639768E2,1.8425464E2,3.6697308E1,0E0,0E0,1.2132306E2,3.9646088E2,0E0,0E0,3.6348782E2,2.4180432E3,4.710608E2,3.832179E2,3.3102356E2,0E0,2.4580727E0,1.9795113E1,5.8323456E1,0E0,0E0,1.5626419E2,0E0,0E0,0E0,0E0,0E0,0E0,0E0,0E0,0E0,0E0,0E0,0E0,0E0,0E0,0E0,0E0,0E0,0E0],"parents":[2147483647,0,0,1,1,2,2,3,3,4,4,5,5,7,7,8,8,10,10,11,11,12,12,13,13,14,14,15,15,16,16,19,19,20,20,23,23,24,24,25,25,26,26,27,27,29,29,30,30,31,31,34,34],"right_children":[2,4,6,8,10,12,-1,14,16,-1,18,20,22,24,26,28,30,-1,-1,32,34,-1,-1,36,38,40,42,44,-1,46,48,50,-1,-1,52,-1,-1,-1,-1,-1,-1,-1,-1,-1,-1,-1,-1,-1,-1,-1,-1,-1,-1],"split_conditions":[3.258817E2,3.2297037E2,1.9868332E1,4.1947342E1,2.312083E0,2.8387545E1,1.622749E0,1.7283749E1,6.3224998E0,7.2460985E-1,1.6805832E1,1.5986595E1,3.4979332E1,1.7227419E1,1.8193361E1,5.964166E0,2.6661832E2,4.367134E0,9.7131276E-1,1.5042659E1,1.6375053E1,-2.3642004E0,-2.0490761E-1,2.0808332E0,1.3141667E0,1.3145718E2,2.9423297E2,4E0,4.1179814E0,8.287084E0,1.1499583E1,3.4833698E2,-2.3946104E0,3.2316563E0,3.4833698E2,-4.288717E-1,3.2254744E-1,1.1739606E1,-8.5004467E-1,1.7174858E-1,-1.5193994E0,5.5665422E-2,-6.607554E-1,2.1356258E0,-3.3988324E-1,-6.375676E-2,-6.521349E-1,-3.841591E-2,1.277956E0,-5.0693506E-1,-1.5723764E0,-7.414892E-1,6.6027737E-1],"split_indices":[3,3,0,2,0,2,0,2,0,0,0,2,2,2,2,0,3,0,0,2,2,0,0,0,0,3,3,1,0,0,0,3,0,0,3,0,0,0,0,0,0,0,0,0,0,0,0,0,0,0,0,0,0],"split_type":[0,0,0,0,0,0,0,0,0,0,0,0,0,0,0,0,0,0,0,0,0,0,0,0,0,0,0,0,0,0,0,0,0,0,0,0,0,0,0,0,0,0,0,0,0,0,0,0,0,0,0,0,0],"sum_hessian":[1.328E3,1.254E3,7.4E1,1.249E3,5E0,7.1E1,3E0,1.222E3,2.7E1,1E0,4E0,6.6E1,5E0,3.58E2,8.64E2,1.9E1,8E0,3E0,1E0,3E1,3.6E1,4E0,1E0,3.53E2,5E0,6.1E1,8.03E2,1.8E1,1E0,5E0,3E0,2.5E1,5E0,2E0,3.4E1,7.2E1,2.81E2,1E0,4E0,2.4E1,3.7E1,7.3E2,7.3E1,9E0,9E0,1E0,4E0,2E0,1E0,1.9E1,6E0,2.5E1,9E0],"tree_param":{"num_deleted":"0","num_feature":"4","num_nodes":"53","size_leaf_vector":"1"}},{"base_weights":[4.7883775E-2,-1.0727211E-2,2.7715845E0,4.5655948E-1,-3.93809E-1,1.8868469E0,1.9392025E0,-4.2943114E-1,1.1574771E0,-6.328789E-1,1.2551093E0,1.1451136E0,2.6593397E0,7.40779E-2,-3.4660957E0,1.1211402E1,9.033062E-1,-4.8982006E-1,-3.9153972E0,6.209159E0,-5.1494103E-2,2.0143647E-1,3.453947E0,1.4481689E0,1.2429771E0,-2.989108E-1,3.693869E0,-7.837675E0,-7.7158725E-1,1.9180017E1,-8.462962E0,-3.117703E0,1.0786214E0,3.528208E-1,-9.301665E-1,-2.9054499E0,-6.241618E0,9.2135E0,-4.0456977E0,-4.3157954E0,8.5813564E-1,-1.0996348E0,6.1274505E-1,2.7987328E-1,1.1949967E0,4.7060776E-1,7.1201706E-1,1.6596708E-1,-3.6248335E-1,2.1444776E0,-5.118702E-1,-2.6102624E0,-5.3169596E-1,4.9072394E-1,-1.737217E0,2.895464E0,7.6473923E0,-3.291664E-1,-3.4791665E0,4.5191417E0,2.8260154E-1,-3.448539E-1,4.8381677E-1,-1.5211738E0,-1.9459674E-1,-1.5858849E0,-7.0416915E-1,-2.6454942E0,-1.0341831E0,2.9046607E0,3.9775145E-1,-1.8340226E0,-1.8882638E-1,-1.4504291E0,-5.8182824E-1,-2.5337517E0,3.9500234E-1,2.810915E-1,-7.759272E-1,7.412487E-1,-8.1333496E-2,1.652948E-1,1.0309983E-2],"categories":[],"categories_nodes":[],"categories_segments":[],"categories_sizes":[],"default_left":[0,0,0,0,0,0,0,0,0,0,0,0,0,0,0,0,0,0,0,0,0,0,0,0,0,0,0,0,0,0,0,0,0,0,0,0,0,0,0,0,0,0,0,0,0,0,0,0,0,0,0,0,0,0,0,0,0,0,0,0,0,0,0,0,0,0,0,0,0,0,0,0,0,0,0,0,0,0,0,0,0,0,0],"id":11,"left_children":[1,3,5,7,9,11,-1,13,15,17,19,21,23,25,27,29,31,33,35,37,39,41,43,-1,45,47,49,51,53,55,57,-1,59,61,63,65,67,69,71,73,75,77,79,-1,-1,81,-1,-1,-1,-1,-1,-1,-1,-1,-1,-1,-1,-1,-1,-1,-1,-1,-1,-1,-1,-1,-1,-1,-1,-1,-1,-1,-1,-1,-1,-1,-1,-1,-1,-1,-1,-1,-1],"loss_changes":[2.1218967E2,2.3324953E2,7.927455E1,3.6502786E2,2.8304636E2,1.07063675E1,0E0,3.9779367E2,8.280491E2,2.920475E2,5.893607E2,2.9807354E1,2.7775558E1,3.0353577E2,4.297851E2,1.4165392E3,6.4688556E2,2.2333159E2,4.294867E1,6.226478E2,2.868658E2,6.560355E0,1.6222115E0,0E0,5.867836E0,1.5874863E2,4.0393185E2,5.7877686E1,2.9945776E2,1.14791016E2,5.653369E1,0E0,5.914718E2,3.93662E2,4.5711136E2,1.4172409E1,2.0002014E1,4.261743E1,3.1471443E1,6.6556854E0,2.7136066E2,1.1507419E1,1.5450392E1,0E0,0E0,1.9144166E-1,0E0,0E0,0E0,0E0,0E0,0E0,0E0,0E0,0E0,0E0,0E0,0E0,0E0,0E0,0E0,0E0,0E0,0E0,0E0,0E0,0E0,0E0,0E0,0E0,0E0,0E0,0E0,0E0,0E0,0E0,0E0,0E0,0E0,0E0,0E0,0E0,0E0],"parents":[2147483647,0,0,1,1,2,2,3,3,4,4,5,5,7,7,8,8,9,9,10,10,11,11,12,12,13,13,14,14,15,15,16,16,17,17,18,18,19,19,20,20,21,21,22,22,24,24,25,25,26,26,27,27,28,28,29,29,30,30,32,32,33,33,34,34,35,35,36,36,37,37,38,38,39,39,40,40,41,41,42,42,45,45],"right_children":[2,4,6,8,10,12,-1,14,16,18,20,22,24,26,28,30,32,34,36,38,40,42,44,-1,46,48,50,52,54,56,58,-1,60,62,64,66,68,70,72,74,76,78,80,-1,-1,82,-1,-1,-1,-1,-1,-1,-1,-1,-1,-1,-1,-1,-1,-1,-1,-1,-1,-1,-1,-1,-1,-1,-1,-1,-1,-1,-1,-1,-1,-1,-1,-1,-1,-1,-1,-1,-1],"split_conditions":[2.1232916E1,8.170417E0,2.153089E1,3.0162504E0,3.0449084E2,2E-1,1.9392025E0,2.4724996E0,1.1874544E1,2.9787122E2,3.0832648E2,3.0369003E2,9.0000004E-1,1.9870834E0,3E-1,5.3349996E0,1.243434E1,3E-1,1.6464167E1,1.9353138E1,1.288981E1,1.4044615E1,2.1909998E1,1.4481689E0,1.5000001E0,1.5897101E2,1E0,2.5265092E2,2.8475E0,9.39054E1,6.5599995E0,-3.117703E0,1.257426E1,1.5069258E2,4E-1,8.9225E0,1.6855833E1,1.803708E1,3.0794223E2,1E-1,8.853749E0,2.146625E1,1.5463244E1,2.7987328E-1,1.1949967E0,2.2722498E1,7.1201706E-1,1.6596708E-1,-3.6248335E-1,2.1444776E0,-5.118702E-1,-2.6102624E0,-5.3169596E-1,4.9072394E-1,-1.737217E0,2.895464E0,7.6473923E0,-3.291664E-1,-3.4791665E0,4.5191417E0,2.8260154E-1,-3.448539E-1,4.8381677E-1,-1.5211738E0,-1.9459674E-1,-1.5858849E0,-7.0416915E-1,-2.6454942E0,-1.0341831E0,2.9046607E0,3.9775145E-1,-1.8340226E0,-1.8882638E-1,-1.4504291E0,-5.8182824E-1,-2.5337517E0,3.9500234E-1,2.810915E-1,-7.759272E-1,7.412487E-1,-8.1333496E-2,1.652948E-1,1.0309983E-2],"split_indices":[0,0,2,0,3,1,0,0,2,3,3,3,1,0,1,0,2,1,0,2,2,2,0,0,1,3,1,3,0,3,0,0,2,3,1,0,0,0,3,1,0,0,2,0,0,0,0,0,0,0,0,0,0,0,0,0,0,0,0,0,0,0,0,0,0,0,0,0,0,0,0,0,0,0,0,0,0,0,0,0,0,0,0],"split_type":[0,0,0,0,0,0,0,0,0,0,0,0,0,0,0,0,0,0,0,0,0,0,0,0,0,0,0,0,0,0,0,0,0,0,0,0,0,0,0,0,0,0,0,0,0,0,0,0,0,0,0,0,0,0,0,0,0,0,0,0,0,0,0,0,0,0,0,0,0,0,0,0,0,0,0,0,0,0,0,0,0,0,0],"sum_hessian":[1.328E3,1.301E3,2.7E1,5.86E2,7.15E2,2.3E1,4E0,2.59E2,3.27E2,6.25E2,9E1,1.3E1,1E1,2.23E2,3.6E1,7E0,3.2E2,6E2,2.5E1,1.8E1,7.2E1,1E1,3E0,3E0,7E0,2.03E2,2E1,1.3E1,2.3E1,5E0,2E0,4E0,3.16E2,2.06E2,3.94E2,1.9E1,6E0,1.4E1,4E0,1.2E1,6E1,2E0,8E0,1E0,2E0,5E0,2E0,1.05E2,9.8E1,1.2E1,8E0,1.1E1,2E0,1.6E1,7E0,3E0,2E0,1E0,1E0,2E0,3.14E2,9.4E1,1.12E2,2.4E1,3.7E2,2E0,1.7E1,2E0,4E0,1.3E1,1E0,2E0,2E0,9E0,3E0,2E0,5.8E1,1E0,1E0,2E0,6E0,4E0,1E0],"tree_param":{"num_deleted":"0","num_feature":"4","num_nodes":"83","size_leaf_vector":"1"}},{"base_weights":[3.4228384E-2,8.497121E-2,-2.5120363E0,-1.0149546E0,2.0763332E-1,-3.5832276E0,2.7036128E0,-3.432774E-1,-3.1705816E0,5.3806925E0,1.6305114E-1,-3.8028657E0,1.5437622E-1,1.3212916E0,1.0171636E-1,4.4571257E0,-5.8718187E-1,-3.7988517E0,8.561932E-1,1.3809586E-2,8.956312E0,-4.2945123E0,2.0536296E-1,-1.7018169E0,-2.8639903E0,3.6179066E-2,9.593297E-3,4.0590467E0,-1.1936707E0,7.5141567E-1,-1.257744E0,1.3027819E-1,-4.927664E0,-1.0571021E0,2.756349E0,-9.8347324E-1,9.90378E-1,3.4303741E0,-5.1525366E-1,-5.807582E0,5.028603E-1,3.5690868E0,1.4897236E-1,-1.1535587E0,-3.16997E0,1.23118594E-1,-9.008804E-1,7.37042E-1,-2.4186984E-1,-9.413821E-1,1.981697E-1,1.1377715E0,-6.279461E-1,-2.0108385E0,-9.9590284E-1,-2.2738712E0,7.887554E-2,1.8402181E0,-1.4518951E0,1.5226969E-1,-1.111033E-1,8.40643E-2,-5.1746637E-1,-1.0122621E0,-1.0786944E-1],"categories":[],"categories_nodes":[],"categories_segments":[],"categories_sizes":[],"default_left":[0,0,0,0,0,0,0,0,0,0,0,0,0,0,0,0,0,0,0,0,0,0,0,0,0,0,0,0,0,0,0,0,0,0,0,0,0,0,0,0,0,0,0,0,0,0,0,0,0,0,0,0,0,0,0,0,0,0,0,0,0,0,0,0,0],"id":12,"left_children":[1,3,5,7,9,11,13,15,17,19,21,23,-1,-1,25,27,29,31,33,35,37,39,41,-1,43,-1,-1,-1,45,47,49,51,53,-1,-1,-1,-1,-1,-1,55,-1,57,59,61,63,-1,-1,-1,-1,-1,-1,-1,-1,-1,-1,-1,-1,-1,-1,-1,-1,-1,-1,-1,-1],"loss_changes":[1.7192645E2,1.7614537E2,1.549486E2,1.8858456E2,2.698778E2,2.175769E1,2.1677135E1,1.2087196E2,8.1679535E1,1.9177567E2,2.2060979E2,2.0620209E1,0E0,0E0,9.370409E-5,2.7249976E2,8.8013535E1,1.2039374E2,2.1483221E2,6.4934654E1,1.7835461E2,1.0910985E2,2.1855148E2,0E0,4.7169647E0,0E0,0E0,0E0,1.28411045E1,8.9641945E1,2.3651471E2,6.4938446E1,3.769104E1,0E0,0E0,0E0,0E0,0E0,0E0,9.8804504E1,0E0,4.3948224E2,2.1192407E2,3.759963E0,6.248596E0,0E0,0E0,0E0,0E0,0E0,0E0,0E0,0E0,0E0,0E0,0E0,0E0,0E0,0E0,0E0,0E0,0E0,0E0,0E0,0E0],"parents":[2147483647,0,0,1,1,2,2,3,3,4,4,5,5,6,6,7,7,8,8,9,9,10,10,11,11,14,14,15,15,16,16,17,17,18,18,19,19,20,20,21,21,22,22,24,24,28,28,29,29,30,30,31,31,32,32,39,39,41,41,42,42,43,43,44,44],"right_children":[2,4,6,8,10,12,14,16,18,20,22,24,-1,-1,26,28,30,32,34,36,38,40,42,-1,44,-1,-1,-1,46,48,50,52,54,-1,-1,-1,-1,-1,-1,56,-1,58,60,62,64,-1,-1,-1,-1,-1,-1,-1,-1,-1,-1,-1,-1,-1,-1,-1,-1,-1,-1,-1,-1],"split_conditions":[1.51E1,6.425863E1,3.7777702E1,2.1077686E1,6.938293E1,1.78225E1,4.0384235E1,4.219928E0,6.164418E1,1E-1,9.007196E0,2.199538E1,1.5437622E-1,1.3212916E0,4.2225003E0,1.1874544E1,4.7500003E-2,-9.462502E-1,1.4682915E1,6.643216E1,3.4999998E0,1.8824583E1,1.0028439E1,-1.7018169E0,2.6596178E1,3.6179066E-2,9.593297E-3,4.0590467E0,1.6520823E1,3.1307787E1,1.5778518E1,2.2127556E1,2.2127556E1,-1.0571021E0,2.756349E0,-9.8347324E-1,9.90378E-1,3.4303741E0,-5.1525366E-1,2.3422755E2,5.028603E-1,1.7895414E1,2.5024893E2,1.496E1,3.6721764E1,1.23118594E-1,-9.008804E-1,7.37042E-1,-2.4186984E-1,-9.413821E-1,1.981697E-1,1.1377715E0,-6.279461E-1,-2.0108385E0,-9.9590284E-1,-2.2738712E0,7.887554E-2,1.8402181E0,-1.4518951E0,1.5226969E-1,-1.111033E-1,8.40643E-2,-5.1746637E-1,-1.0122621E0,-1.0786944E-1],"split_indices":[1,3,2,2,3,0,2,3,3,1,2,2,0,0,0,2,0,0,0,3,1,0,2,0,2,0,0,0,2,3,2,2,2,0,0,0,0,0,0,3,0,0,3,0,2,0,0,0,0,0,0,0,0,0,0,0,0,0,0,0,0,0,0,0,0],"split_type":[0,0,0,0,0,0,0,0,0,0,0,0,0,0,0,0,0,0,0,0,0,0,0,0,0,0,0,0,0,0,0,0,0,0,0,0,0,0,0,0,0,0,0,0,0,0,0,0,0,0,0,0,0,0,0,0,0,0,0,0,0,0,0,0,0],"sum_hessian":[1.328E3,1.303E3,2.5E1,1.3E2,1.173E3,2.1E1,4E0,1E2,3E1,9E0,1.164E3,2E1,1E0,2E0,2E0,4E0,9.6E1,2.6E1,4E0,4E0,5E0,1E1,1.154E3,5E0,1.5E1,1E0,1E0,1E0,3E0,3.2E1,6.4E1,6E0,2E1,3E0,1E0,2E0,2E0,4E0,1E0,8E0,2E0,1.8E1,1.136E3,3E0,1.2E1,2E0,1E0,1.5E1,1.7E1,3.2E1,3.2E1,2E0,4E0,8E0,1.2E1,6E0,2E0,1.4E1,4E0,6.72E2,4.64E2,1E0,2E0,1.1E1,1E0],"tree_param":{"num_deleted":"0","num_feature":"4","num_nodes":"65","size_leaf_vector":"1"}},{"base_weights":[2.5585577E-2,-2.1731643E-2,2.2249224E0,1.0285897E-1,-9.5805496E-1,3.1610913E0,-1.0266622E-1,3.1326772E-3,1.9116816E1,-2.3775985E0,5.11451E-1,2.1221824E0,3.435054E0,-1.2699846E0,1.6739779E0,3.2087675E-1,-5.738108E-1,7.1062927E0,-5.60596E-1,-4.881214E0,-5.298397E-1,4.997008E0,7.409189E-2,5.4645457E0,-8.054041E-1,-8.3381655E-3,-1.5128639E0,-2.8384653E-1,1.1321177E0,1.9095941E-1,2.3202474E0,-5.2464924E0,-3.3147204E-1,-3.1322143E0,-9.955311E0,3.857465E0,-1.416214E0,-7.1199244E-1,3.2658954E0,6.4525237E0,1.3377482E0,1.5994105E0,-1.907136E0,-5.763743E-1,-6.0019237E-1,-1.8183489E-1,5.410395E-2,8.910949E-2,-2.3781312E0,-4.535158E-1,1.1278499E0,9.255753E-1,-1.9030935E0,-1.8701497E-1,4.02045E-1,-1.7410558E0,-4.345498E-3,-3.2057602E0,-7.262129E-1,1.7583367E0,-4.3070117E-1,-1.4430735E0,-7.129897E-2,-1.2958342E0,-1.3676956E-3,3.9992735E0,4.7842732E-1,2.0680044E0,5.711374E-1,5.793858E-2,5.4404813E-1,-5.651396E-1,1.016524E0,-1.0183746E0,5.1104015E-1,7.163115E-2,-3.4171772E-1],"categories":[],"categories_nodes":[],"categories_segments":[],"categories_sizes":[],"default_left":[0,0,0,0,0,0,0,0,0,0,0,0,0,0,0,0,0,0,0,0,0,0,0,0,0,0,0,0,0,0,0,0,0,0,0,0,0,0,0,0,0,0,0,0,0,0,0,0,0,0,0,0,0,0,0,0,0,0,0,0,0,0,0,0,0,0,0,0,0,0,0,0,0,0,0,0,0],"id":13,"left_children":[1,3,5,7,9,11,13,15,17,19,21,23,-1,25,27,29,31,-1,-1,33,35,-1,37,39,41,-1,43,45,-1,47,49,51,53,55,57,59,61,63,65,67,69,71,73,-1,75,-1,-1,-1,-1,-1,-1,-1,-1,-1,-1,-1,-1,-1,-1,-1,-1,-1,-1,-1,-1,-1,-1,-1,-1,-1,-1,-1,-1,-1,-1,-1,-1],"loss_changes":[1.3835274E2,1.519861E2,6.1336975E1,2.1805603E3,3.2037827E2,1.4793282E2,2.0791107E1,2.1008597E2,6.197893E2,3.5824783E2,5.354223E2,1.9031726E2,0E0,1.7681656E0,1.7514908E1,1.9151434E2,4.591363E2,0E0,0E0,2.6167938E2,1.8434752E2,0E0,1.9050227E2,2.8062836E1,3.2194363E1,0E0,7.1048164E-1,5.5809706E-1,0E0,6.0081976E2,2.5386578E2,2.0239557E2,1.9016592E2,2.164545E2,1.8168274E1,9.325967E1,1.5485826E2,1.5565439E2,2.3104088E2,9.128113E-1,1.2834053E0,3.1308968E1,4.8747154E1,0E0,1.6282412E0,0E0,0E0,0E0,0E0,0E0,0E0,0E0,0E0,0E0,0E0,0E0,0E0,0E0,0E0,0E0,0E0,0E0,0E0,0E0,0E0,0E0,0E0,0E0,0E0,0E0,0E0,0E0,0E0,0E0,0E0,0E0,0E0],"parents":[2147483647,0,0,1,1,2,2,3,3,4,4,5,5,6,6,7,7,8,8,9,9,10,10,11,11,13,13,14,14,15,15,16,16,19,19,20,20,22,22,23,23,24,24,26,26,27,27,29,29,30,30,31,31,32,32,33,33,34,34,35,35,36,36,37,37,38,38,39,39,40,40,41,41,42,42,44,44],"right_children":[2,4,6,8,10,12,14,16,18,20,22,24,-1,26,28,30,32,-1,-1,34,36,-1,38,40,42,-1,44,46,-1,48,50,52,54,56,58,60,62,64,66,68,70,72,74,-1,76,-1,-1,-1,-1,-1,-1,-1,-1,-1,-1,-1,-1,-1,-1,-1,-1,-1,-1,-1,-1,-1,-1,-1,-1,-1,-1,-1,-1,-1,-1,-1,-1],"split_conditions":[4.1947342E1,6.4999995E0,6.3224998E0,6.2000003E0,1.187875E1,5.964166E0,2.6661832E2,1.35912485E1,2.709822E1,8.400001E0,1.192875E1,3.3000002E0,3.435054E0,8.287084E0,1.1499583E1,1.239125E1,1.4057915E1,7.1062927E0,-5.60596E-1,8.000001E0,9.400001E0,4.997008E0,1.78225E1,4.4676273E1,3.814167E0,-8.3381655E-3,4.4999995E0,8.07875E0,1.1321177E0,1.2114165E1,1.8292064E2,1.4021525E1,1.9630833E1,2.0587675E2,2.5024893E2,3.7777702E1,1.07E1,1.7595861E1,1.7895414E1,4.9162498E0,4.1287503E0,4.4676273E1,5.3349996E0,-5.763743E-1,1.3893331E1,-1.8183489E-1,5.410395E-2,8.910949E-2,-2.3781312E0,-4.535158E-1,1.1278499E0,9.255753E-1,-1.9030935E0,-1.8701497E-1,4.02045E-1,-1.7410558E0,-4.345498E-3,-3.2057602E0,-7.262129E-1,1.7583367E0,-4.3070117E-1,-1.4430735E0,-7.129897E-2,-1.2958342E0,-1.3676956E-3,3.9992735E0,4.7842732E-1,2.0680044E0,5.711374E-1,5.793858E-2,5.4404813E-1,-5.651396E-1,1.016524E0,-1.0183746E0,5.1104015E-1,7.163115E-2,-3.4171772E-1],"split_indices":[2,1,0,1,0,0,3,0,2,1,0,1,0,0,0,0,0,0,0,1,1,0,0,2,0,0,1,0,0,0,3,2,0,3,3,2,1,2,0,0,0,2,0,0,0,0,0,0,0,0,0,0,0,0,0,0,0,0,0,0,0,0,0,0,0,0,0,0,0,0,0,0,0,0,0,0,0],"split_type":[0,0,0,0,0,0,0,0,0,0,0,0,0,0,0,0,0,0,0,0,0,0,0,0,0,0,0,0,0,0,0,0,0,0,0,0,0,0,0,0,0,0,0,0,0,0,0,0,0,0,0,0,0,0,0,0,0,0,0,0,0,0,0,0,0,0,0,0,0,0,0,0,0,0,0,0,0],"sum_hessian":[1.328E3,1.301E3,2.7E1,1.149E3,1.52E2,1.9E1,8E0,1.144E3,5E0,7.7E1,7.5E1,1.8E1,1E0,5E0,3E0,7.38E2,4.06E2,4E0,1E0,3.2E1,4.5E1,1E0,7.4E1,8E0,1E1,1E0,4E0,2E0,1E0,6.94E2,4.4E1,1.9E1,3.87E2,2.5E1,7E0,7E0,3.8E1,6E1,1.4E1,6E0,2E0,3E0,7E0,2E0,2E0,1E0,1E0,6.86E2,8E0,1.2E1,3.2E1,2E0,1.7E1,3.3E2,5.7E1,1.3E1,1.2E1,6E0,1E0,5E0,2E0,9E0,2.9E1,9E0,5.1E1,1E0,1.3E1,5E0,1E0,1E0,1E0,1E0,2E0,5E0,2E0,1E0,1E0],"tree_param":{"num_deleted":"0","num_feature":"4","num_nodes":"77","size_leaf_vector":"1"}},{"base_weights":[2.7880821E-2,-6.466405E-1,1.8476401E-1,-3.4361473E-1,-3.1479056E0,5.697214E0,1.0169638E-1,-1.2070305E0,7.876183E-1,-2.373171E0,-1.7059104E0,1.0259113E1,-1.6336725E0,-2.4790363E0,1.687273E-1,-2.3583889E-1,-5.008019E0,5.2407675E0,-8.030945E-2,6.0675206E0,-4.349127E0,1.2023174E1,-8.4261477E-1,-1.5430523E0,7.989632E-1,-7.731892E0,5.769412E-1,1.3780482E0,-6.30678E-2,-6.159478E-1,7.3374853E0,-3.652414E0,-2.9913235E0,-2.3531754E0,6.636008E0,-6.499713E-1,8.93641E0,1.9858276E0,4.9619982E-1,-3.8432235E-1,-5.539503E0,5.8606243E0,1.4127678E1,6.362721E-1,-6.174946E-2,-3.7523587E0,-3.2882862E0,5.081651E0,-5.6891527E0,8.2832813E-1,9.098776E0,-5.9303646E0,1.1878056E-2,-2.8999954E-1,2.3865767E0,-1.2780825E0,3.3905985E0,-1.8903284E0,2.620738E-1,2.5530646E0,-1.1092676E0,-5.7009184E-1,1.849838E-1,5.1546016E0,-6.8639636E-1,-1.2224727E0,2.1567035E0,-2.25621E0,-2.5963452E-1,2.2092023E0,2.025713E-1,4.641724E0,1.1106005E0,4.6538547E-2,-5.572548E-2,-1.4682639E0,2.9353666E-1,4.514093E0,3.5857463E-1,-2.6614163E0,-8.672147E-2,1.9041069E0,3.3859525E-2,1.3994361E0,4.707618E0,-2.8329277E-2,-3.2333713E0,6.784819E-1,-2.243051E-2],"categories":[],"categories_nodes":[],"categories_segments":[],"categories_sizes":[],"default_left":[0,0,0,0,0,0,0,0,0,0,0,0,0,0,0,0,0,0,0,0,0,0,0,0,0,0,0,0,0,0,0,0,0,0,0,0,0,0,0,0,0,0,0,0,0,0,0,0,0,0,0,0,0,0,0,0,0,0,0,0,0,0,0,0,0,0,0,0,0,0,0,0,0,0,0,0,0,0,0,0,0,0,0,0,0,0,0,0,0],"id":14,"left_children":[1,3,5,7,9,11,13,15,17,-1,19,21,23,25,27,29,31,33,35,37,39,41,-1,-1,43,45,47,49,51,53,55,57,-1,-1,59,61,63,-1,-1,65,67,69,71,-1,73,75,-1,77,79,81,83,85,87,-1,-1,-1,-1,-1,-1,-1,-1,-1,-1,-1,-1,-1,-1,-1,-1,-1,-1,-1,-1,-1,-1,-1,-1,-1,-1,-1,-1,-1,-1,-1,-1,-1,-1,-1,-1],"loss_changes":[1.4075568E2,1.8916321E2,4.9350137E2,2.2071367E2,1.7193423E2,5.518443E2,1.8447842E2,4.7132947E2,3.7919202E2,0E0,4.7841934E2,2.6429407E2,6.3876526E1,4.3788135E2,2.9105353E2,3.0102435E2,1.3850818E2,3.4415274E2,4.3213635E2,3.6665192E0,7.810443E1,3.392505E1,0E0,0E0,5.820033E0,8.737213E1,5.369952E2,7.012512E2,3.8351465E2,3.0529095E2,2.780467E2,2.6923856E2,0E0,0E0,3.2197565E2,1.2628041E2,5.0207135E2,0E0,0E0,1.6904477E2,1.13874084E2,2.6210037E1,2.6839722E1,0E0,1.3638867E-1,3.7200157E1,0E0,4.0803708E2,1.3491013E2,6.191859E2,2.4837982E2,3.1017133E2,1.6819952E2,0E0,0E0,0E0,0E0,0E0,0E0,0E0,0E0,0E0,0E0,0E0,0E0,0E0,0E0,0E0,0E0,0E0,0E0,0E0,0E0,0E0,0E0,0E0,0E0,0E0,0E0,0E0,0E0,0E0,0E0,0E0,0E0,0E0,0E0,0E0,0E0],"parents":[2147483647,0,0,1,1,2,2,3,3,4,4,5,5,6,6,7,7,8,8,10,10,11,11,12,12,13,13,14,14,15,15,16,16,17,17,18,18,19,19,20,20,21,21,24,24,25,25,26,26,27,27,28,28,29,29,30,30,31,31,34,34,35,35,36,36,39,39,40,40,41,41,42,42,44,44,45,45,47,47,48,48,49,49,50,50,51,51,52,52],"right_children":[2,4,6,8,10,12,14,16,18,-1,20,22,24,26,28,30,32,34,36,38,40,42,-1,-1,44,46,48,50,52,54,56,58,-1,-1,60,62,64,-1,-1,66,68,70,72,-1,74,76,-1,78,80,82,84,86,88,-1,-1,-1,-1,-1,-1,-1,-1,-1,-1,-1,-1,-1,-1,-1,-1,-1,-1,-1,-1,-1,-1,-1,-1,-1,-1,-1,-1,-1,-1,-1,-1,-1,-1,-1,-1],"split_conditions":[1.1633304E2,1.0818917E2,1.2069966E2,7.0433335E0,1.0141667E0,7.922499E0,1.282261E2,3.5183334E0,8.626667E0,-2.373171E0,4.04125E0,4.1000004E0,1.2064168E1,1.608761E1,1.6612398E2,9.6894104E1,9.856751E1,1.3044722E1,3.1394394E1,1.146203E2,1.6992609E1,2.0808332E0,-8.4261477E-1,-1.5430523E0,1.6674582E1,1.4021525E1,2.261419E1,1.6437729E2,1.6803415E2,3.0162504E0,-9.462502E-1,1E-1,-2.9913235E0,-2.3531754E0,2.6836306E1,1.506625E1,1.0000001E0,1.9858276E0,4.9619982E-1,1.6418526E1,9E-1,1.0141667E0,6.5599995E0,6.362721E-1,2.1909998E1,1.6326666E1,-3.2882862E0,4.9579167E0,5.7537503E0,2.0808332E0,4E-1,1E-1,1.7480563E2,-2.8999954E-1,2.3865767E0,-1.2780825E0,3.3905985E0,-1.8903284E0,2.620738E-1,2.5530646E0,-1.1092676E0,-5.7009184E-1,1.849838E-1,5.1546016E0,-6.8639636E-1,-1.2224727E0,2.1567035E0,-2.25621E0,-2.5963452E-1,2.2092023E0,2.025713E-1,4.641724E0,1.1106005E0,4.6538547E-2,-5.572548E-2,-1.4682639E0,2.9353666E-1,4.514093E0,3.5857463E-1,-2.6614163E0,-8.672147E-2,1.9041069E0,3.3859525E-2,1.3994361E0,4.707618E0,-2.8329277E-2,-3.2333713E0,6.784819E-1,-2.243051E-2],"split_indices":[3,3,3,0,0,0,3,0,0,0,0,1,0,2,3,3,3,2,2,3,2,0,0,0,0,2,2,3,3,0,0,1,0,0,2,0,1,0,0,2,1,0,0,0,0,0,0,0,0,0,1,1,3,0,0,0,0,0,0,0,0,0,0,0,0,0,0,0,0,0,0,0,0,0,0,0,0,0,0,0,0,0,0,0,0,0,0,0,0],"split_type":[0,0,0,0,0,0,0,0,0,0,0,0,0,0,0,0,0,0,0,0,0,0,0,0,0,0,0,0,0,0,0,0,0,0,0,0,0,0,0,0,0,0,0,0,0,0,0,0,0,0,0,0,0,0,0,0,0,0,0,0,0,0,0,0,0,0,0,0,0,0,0,0,0,0,0,0,0,0,0,0,0,0,0,0,0,0,0,0,0],"sum_hessian":[1.328E3,2.5E2,1.078E3,2.24E2,2.6E1,1.5E1,1.063E3,1.27E2,9.7E1,5E0,2.1E1,9E0,6E0,2.6E1,1.037E3,1.02E2,2.5E1,1.5E1,8.2E1,5E0,1.6E1,8E0,1E0,2E0,4E0,9E0,1.7E1,1.66E2,8.71E2,9.8E1,4E0,2.1E1,4E0,1E0,1.4E1,7.8E1,4E0,4E0,1E0,4E0,1.2E1,3E0,5E0,1E0,3E0,5E0,4E0,1E1,7E0,1.56E2,1E1,1E1,8.61E2,9.5E1,3E0,1E0,3E0,1.3E1,8E0,1.2E1,2E0,3.9E1,3.9E1,2E0,2E0,3E0,1E0,8E0,4E0,2E0,1E0,4E0,1E0,1E0,2E0,4E0,1E0,2E0,8E0,4E0,3E0,1.7E1,1.39E2,7E0,3E0,5E0,5E0,3.1E1,8.3E2],"tree_param":{"num_deleted":"0","num_feature":"4","num_nodes":"89","size_leaf_vector":"1"}},{"base_weights":[2.7640581E-2,1.0093088E-1,-1.199119E0,5.9594054E-2,8.695948E0,-1.9622979E0,1.3266311E0,8.225196E-2,-4.651853E0,3.0091038E-1,1.0033923E1,-1.1612642E0,-4.6457787E0,4.483288E0,-1.6470232E0,3.6683324E-1,-3.1001893E-1,-6.757334E0,8.81333E-1,3.3554974E0,8.14448E-1,-2.602972E0,1.0244768E0,-1.0212463E0,-1.8429632E0,2.50522E0,1.1577768E0,-2.315348E0,-6.56991E-2,2.3876643E-1,3.3129487E0,-5.805703E-2,-2.2948363E0,-1.8910046E-1,-2.4394503E0,-3.730162E-1,-4.0239425E0,-4.251929E-1,5.1685905E0,-8.695098E-1,1.7262506E-1,-9.1168326E-1,1.7257617E0,-1.1313515E-1,-2.5755336E0,-2.0371057E-1,1.095274E-1,1.9231133E-1,-1.5407097E-1,-8.322588E-2,2.616486E0,-3.649666E-2,2.1953957E0,-1.4651823E0,-2.2064725E-1,-8.6249465E-1,1.1114198E0,-1.4895049E0,6.068226E-1,1.5734175E-1,-1.3196036E0,2.7131417E0,-1.2884617E-1,-4.23755E-1,3.5155335E-1,1.5716249E-1,-6.1300415E-1,-9.302189E-1,-3.0502838E-1],"categories":[],"categories_nodes":[],"categories_segments":[],"categories_sizes":[],"default_left":[0,0,0,0,0,0,0,0,0,0,0,0,0,0,0,0,0,0,0,0,0,0,0,0,0,0,0,0,0,0,0,0,0,0,0,0,0,0,0,0,0,0,0,0,0,0,0,0,0,0,0,0,0,0,0,0,0,0,0,0,0,0,0,0,0,0,0,0,0],"id":15,"left_children":[1,3,5,7,9,11,13,15,17,-1,19,21,23,25,27,29,31,33,-1,-1,-1,35,37,39,-1,-1,41,43,45,47,49,51,53,-1,-1,55,57,59,61,-1,63,65,-1,-1,67,-1,-1,-1,-1,-1,-1,-1,-1,-1,-1,-1,-1,-1,-1,-1,-1,-1,-1,-1,-1,-1,-1,-1,-1],"loss_changes":[1.1961085E2,4.453716E2,1.4717319E2,1.3382199E2,5.1693207E1,1.1927942E2,1.763466E2,1.3909676E2,1.1573047E2,0E0,1.1758514E1,1.4762187E2,6.42836E1,1.06082794E2,1.0416262E1,2.7161932E2,2.619183E2,3.697203E1,0E0,0E0,0E0,8.722264E1,1.1634198E2,1.1705527E1,0E0,0E0,6.229655E1,2.5588226E0,1.3047872E0,2.1006104E2,5.8499316E2,2.1949335E2,2.3460907E2,0E0,0E0,1.330797E2,1.0677936E2,5.890921E1,1.1235295E2,0E0,7.9908667E0,9.193304E0,0E0,0E0,1.7592621E0,0E0,0E0,0E0,0E0,0E0,0E0,0E0,0E0,0E0,0E0,0E0,0E0,0E0,0E0,0E0,0E0,0E0,0E0,0E0,0E0,0E0,0E0,0E0,0E0],"parents":[2147483647,0,0,1,1,2,2,3,3,4,4,5,5,6,6,7,7,8,8,10,10,11,11,12,12,13,13,14,14,15,15,16,16,17,17,21,21,22,22,23,23,26,26,27,27,28,28,29,29,30,30,31,31,32,32,35,35,36,36,37,37,38,38,40,40,41,41,44,44],"right_children":[2,4,6,8,10,12,14,16,18,-1,20,22,24,26,28,30,32,34,-1,-1,-1,36,38,40,-1,-1,42,44,46,48,50,52,54,-1,-1,56,58,60,62,-1,64,66,-1,-1,68,-1,-1,-1,-1,-1,-1,-1,-1,-1,-1,-1,-1,-1,-1,-1,-1,-1,-1,-1,-1,-1,-1,-1,-1],"split_conditions":[3.258817E2,3.2297037E2,8.000001E-1,3.2178122E2,2.312083E0,1.9969458E1,2.8999999E0,1.0000001E0,1.7207914E1,3.0091038E-1,1.6805832E1,1.5986595E1,4.4766665E0,1.6375053E1,9.7E0,9E-1,2.7948453E2,3.0162504E0,8.81333E-1,3.3554974E0,8.14448E-1,1.2682018E1,1.50975E1,2.1261345E1,-1.8429632E0,2.50522E0,3.4252512E2,3.1000001E0,7.5558324E0,1.3722499E1,2.5277025E1,4.7242367E1,8.9225E0,-1.8910046E-1,-2.4394503E0,1.1246759E1,1.9180834E1,1.412875E1,1.6253748E1,-8.695098E-1,8.6833334E-1,-1.6858331E0,1.7257617E0,-1.1313515E-1,1.1668334E1,-2.0371057E-1,1.095274E-1,1.9231133E-1,-1.5407097E-1,-8.322588E-2,2.616486E0,-3.649666E-2,2.1953957E0,-1.4651823E0,-2.2064725E-1,-8.6249465E-1,1.1114198E0,-1.4895049E0,6.068226E-1,1.5734175E-1,-1.3196036E0,2.7131417E0,-1.2884617E-1,-4.23755E-1,3.5155335E-1,1.5716249E-1,-6.1300415E-1,-9.302189E-1,-3.0502838E-1],"split_indices":[3,3,1,3,0,2,1,1,0,0,0,2,0,2,1,1,3,0,0,0,0,2,0,2,0,0,3,1,0,0,2,2,0,0,0,2,0,0,0,0,0,0,0,0,0,0,0,0,0,0,0,0,0,0,0,0,0,0,0,0,0,0,0,0,0,0,0,0,0],"split_type":[0,0,0,0,0,0,0,0,0,0,0,0,0,0,0,0,0,0,0,0,0,0,0,0,0,0,0,0,0,0,0,0,0,0,0,0,0,0,0,0,0,0,0,0,0,0,0,0,0,0,0,0,0,0,0,0,0,0,0,0,0,0,0,0,0,0,0,0,0],"sum_hessian":[1.328E3,1.254E3,7.4E1,1.249E3,5E0,5.7E1,1.7E1,1.244E3,5E0,1E0,4E0,4.5E1,1.2E1,8E0,9E0,7.21E2,5.23E2,4E0,1E0,3E0,1E0,2.7E1,1.8E1,4E0,8E0,3E0,5E0,6E0,3E0,6.92E2,2.9E1,4.65E2,5.8E1,1E0,3E0,1.1E1,1.6E1,1.4E1,4E0,1E0,3E0,4E0,1E0,1E0,5E0,1E0,2E0,4.51E2,2.41E2,1.8E1,1.1E1,4.62E2,3E0,2.1E1,3.7E1,7E0,4E0,1.4E1,2E0,1.2E1,2E0,2E0,2E0,1E0,2E0,2E0,2E0,3E0,2E0],"tree_param":{"num_deleted":"0","num_feature":"4","num_nodes":"69","size_leaf_vector":"1"}},{"base_weights":[2.3941765E-2,-8.262004E-1,1.1289024E-1,3.0255738E-1,-1.7335289E0,-8.45222E-1,2.1484445E-1,-5.327445E-1,4.8166947E0,-3.4757962E0,-1.7488798E-1,-2.3040855E0,2.560973E-1,3.0852275E0,1.2222337E-1,1.2590939E-1,-5.274082E0,5.3108487E0,1.2951937E-1,-8.933309E0,-1.3720602E0,3.9087162E0,-9.120618E-1,2.9798617E0,-3.536656E0,7.405959E-1,-4.793071E0,6.6356807E0,-1.8543917E0,8.216455E-1,-1.1313505E-1,2.0174694E0,-1.8394841E-1,3.988352E-2,-1.9146231E0,3.4019125E0,2.2075317E0,4.1668284E-1,-1.0397207E1,-4.293236E0,2.1503165E0,-6.2390983E-1,2.2268548E0,6.079033E-1,-2.3783762E0,3.0499902E0,1.0517055E0,-7.2358327E0,-2.8218858E0,1.6834036E-1,7.2306404E0,-5.7742853E0,1.695013E-2,-7.9992237E0,9.688853E0,-2.9473293E0,9.2094916E-1,5.6212764E0,1.1774377E-1,-2.2205403E0,6.6005036E-2,3.1434962E-1,-3.0889335E-1,-4.75807E-1,1.4150114E0,-3.4529982E0,-3.9115623E-1,-2.1251233E0,2.489963E0,2.0656557E0,-1.7568214E0,5.221232E-1,-1.0523546E0,-7.9664424E-2,-9.709777E-1,1.0981624E0,-1.615844E0,-1.23448566E-1,-2.5555205E0,-6.953027E-1,-1.882845E0,1.2753339E0,-2.9674387E-1,3.8398423E0,-2.2452202E-1,-2.1357424E0,-7.5140023E-1,-1.2000218E-1,-3.1196883E0,9.6031E0,1.8879346E0,1.444243E-1,-1.2879856E0,5.3225464E-1,-7.178002E-2,3.2458224E0,-2.708501E-1,-1.6307333E0,1.2522112E-1,-1.4965037E0,3.303129E-1,9.806157E-1,-2.5652168E-2],"categories":[],"categories_nodes":[],"categories_segments":[],"categories_sizes":[],"default_left":[0,0,0,0,0,0,0,0,0,0,0,0,0,0,0,0,0,0,0,0,0,0,0,0,0,0,0,0,0,0,0,0,0,0,0,0,0,0,0,0,0,0,0,0,0,0,0,0,0,0,0,0,0,0,0,0,0,0,0,0,0,0,0,0,0,0,0,0,0,0,0,0,0,0,0,0,0,0,0,0,0,0,0,0,0,0,0,0,0,0,0,0,0,0,0,0,0,0,0,0,0,0,0],"id":16,"left_children":[1,3,5,7,9,11,13,15,17,19,21,23,25,27,29,31,33,35,-1,37,39,41,43,45,47,49,51,53,55,57,59,-1,61,-1,-1,63,-1,-1,65,67,69,-1,-1,71,73,-1,75,77,79,81,83,85,-1,87,89,91,93,95,97,99,101,-1,-1,-1,-1,-1,-1,-1,-1,-1,-1,-1,-1,-1,-1,-1,-1,-1,-1,-1,-1,-1,-1,-1,-1,-1,-1,-1,-1,-1,-1,-1,-1,-1,-1,-1,-1,-1,-1,-1,-1,-1,-1],"loss_changes":[1.0059072E2,1.295679E2,1.1779262E2,2.1749411E2,1.8948198E2,1.8696432E2,2.891423E2,1.536862E2,1.720877E1,3.666214E2,1.1795738E2,3.361806E2,1.6745282E2,6.0859326E2,1.7392627E2,9.120594E1,3.6794205E1,6.2369843E0,0E0,1.5043774E2,2.6646884E2,1.4170181E2,7.499447E1,1.27879875E2,8.798779E1,2.2904858E2,2.8877045E1,9.7116113E2,4.8213455E1,8.980108E2,2.987655E2,0E0,4.587251E1,0E0,0E0,4.6829384E1,0E0,0E0,6.5944275E1,5.5077075E2,4.9526453E2,0E0,0E0,8.534412E1,2.9966003E1,0E0,1.7087392E2,4.9010803E1,4.8154236E1,2.7829868E2,2.3174911E2,4.1547546E0,0E0,6.878482E1,1.0871194E3,5.2831146E1,5.374174E0,1.1628163E3,3.9001996E2,5.7548914E2,3.545123E2,0E0,0E0,0E0,0E0,0E0,0E0,0E0,0E0,0E0,0E0,0E0,0E0,0E0,0E0,0E0,0E0,0E0,0E0,0E0,0E0,0E0,0E0,0E0,0E0,0E0,0E0,0E0,0E0,0E0,0E0,0E0,0E0,0E0,0E0,0E0,0E0,0E0,0E0,0E0,0E0,0E0,0E0],"parents":[2147483647,0,0,1,1,2,2,3,3,4,4,5,5,6,6,7,7,8,8,9,9,10,10,11,11,12,12,13,13,14,14,15,15,16,16,17,17,19,19,20,20,21,21,22,22,23,23,24,24,25,25,26,26,27,27,28,28,29,29,30,30,32,32,35,35,38,38,39,39,40,40,43,43,44,44,46,46,47,47,48,48,49,49,50,50,51,51,53,53,54,54,55,55,56,56,57,57,58,58,59,59,60,60],"right_children":[2,4,6,8,10,12,14,16,18,20,22,24,26,28,30,32,34,36,-1,38,40,42,44,46,48,50,52,54,56,58,60,-1,62,-1,-1,64,-1,-1,66,68,70,-1,-1,72,74,-1,76,78,80,82,84,86,-1,88,90,92,94,96,98,100,102,-1,-1,-1,-1,-1,-1,-1,-1,-1,-1,-1,-1,-1,-1,-1,-1,-1,-1,-1,-1,-1,-1,-1,-1,-1,-1,-1,-1,-1,-1,-1,-1,-1,-1,-1,-1,-1,-1,-1,-1,-1,-1],"split_conditions":[6.1E-1,8.301096E1,8.619615E1,6.425863E1,2.0512137E2,7.0433335E0,1.4329166E0,2.7041668E-1,1.3E0,1.484318E1,2.1633696E2,1.3246826E1,2.502971E1,2.3010977E2,1.7068707E1,1.0308831E1,2.6103456E1,2E-1,1.2951937E-1,-2.135833E0,5E-1,1.0587918E1,1.7595861E1,4.219928E0,1.5281989E1,2.4448214E1,7.7999997E0,1.5580141E1,1.11E0,5.8808327E0,1.8193361E1,2.0174694E0,3.1307787E1,3.988352E-2,-1.9146231E0,6.643216E1,2.2075317E0,4.1668284E-1,3.4541667E-1,1.9161148E2,2.8521906E1,-6.2390983E-1,2.2268548E0,3.3234344E2,-1.6858331E0,3.0499902E0,2.312083E0,1.11E0,6.3224998E0,8.626667E0,2.464094E1,4E-1,1.695013E-2,7.6208335E-1,1.7283749E1,7.079167E-1,2.7036218E2,2.8080002E2,6.9725E0,2.4914087E2,1.894024E1,3.1434962E-1,-3.0889335E-1,-4.75807E-1,1.4150114E0,-3.4529982E0,-3.9115623E-1,-2.1251233E0,2.489963E0,2.0656557E0,-1.7568214E0,5.221232E-1,-1.0523546E0,-7.9664424E-2,-9.709777E-1,1.0981624E0,-1.615844E0,-1.23448566E-1,-2.5555205E0,-6.953027E-1,-1.882845E0,1.2753339E0,-2.9674387E-1,3.8398423E0,-2.2452202E-1,-2.1357424E0,-7.5140023E-1,-1.2000218E-1,-3.1196883E0,9.6031E0,1.8879346E0,1.444243E-1,-1.2879856E0,5.3225464E-1,-7.178002E-2,3.2458224E0,-2.708501E-1,-1.6307333E0,1.2522112E-1,-1.4965037E0,3.303129E-1,9.806157E-1,-2.5652168E-2],"split_indices":[0,3,3,3,3,0,0,0,1,2,3,2,2,3,2,2,3,1,0,0,1,2,2,3,2,2,1,2,0,0,2,0,3,0,0,3,0,0,0,3,2,0,0,3,0,0,0,0,0,0,2,1,0,0,2,0,3,3,0,3,2,0,0,0,0,0,0,0,0,0,0,0,0,0,0,0,0,0,0,0,0,0,0,0,0,0,0,0,0,0,0,0,0,0,0,0,0,0,0,0,0,0,0],"split_type":[0,0,0,0,0,0,0,0,0,0,0,0,0,0,0,0,0,0,0,0,0,0,0,0,0,0,0,0,0,0,0,0,0,0,0,0,0,0,0,0,0,0,0,0,0,0,0,0,0,0,0,0,0,0,0,0,0,0,0,0,0,0,0,0,0,0,0,0,0,0,0,0,0,0,0,0,0,0,0,0,0,0,0,0,0,0,0,0,0,0,0,0,0,0,0,0,0,0,0,0,0,0,0],"sum_hessian":[1.328E3,1.25E2,1.203E3,5.6E1,6.9E1,1.15E2,1.088E3,4.8E1,8E0,3.2E1,3.7E1,4.9E1,6.6E1,3.3E1,1.055E3,4.3E1,5E0,7E0,1E0,8E0,2.4E1,5E0,3.2E1,9E0,4E1,6.1E1,5E0,1.9E1,1.4E1,2.65E2,7.9E2,1E0,4.2E1,1E0,4E0,5E0,2E0,1E0,7E0,1.3E1,1.1E1,2E0,3E0,1.6E1,1.6E1,1E0,8E0,5E0,3.5E1,5.7E1,4E0,4E0,1E0,3E0,1.6E1,1E1,4E0,3.3E1,2.32E2,6.1E1,7.29E2,1.7E1,2.5E1,1E0,4E0,6E0,1E0,1.1E1,2E0,7E0,4E0,1.3E1,3E0,5E0,1.1E1,6E0,2E0,1E0,4E0,3.2E1,3E0,1.2E1,4.5E1,2E0,2E0,2E0,2E0,1E0,2E0,1E0,1.5E1,3E0,7E0,2E0,2E0,1.8E1,1.5E1,1.1E1,2.21E2,3.3E1,2.8E1,3.2E1,6.97E2],"tree_param":{"num_deleted":"0","num_feature":"4","num_nodes":"103","size_leaf_vector":"1"}},{"base_weights":[2.3168769E-2,-9.693953E-2,5.7984376E-1,3.595929E-2,-1.2982358E0,3.4595337E0,-1.5457398E-1,-2.7864574E-2,1.3116714E0,-2.240609E0,1.2580339E0,7.127845E0,-1.5962876E0,-2.051608E0,5.8044344E-1,1.06195696E-1,-1.1182979E0,-1.1451886E0,2.0941894E0,-4.3469653E0,-8.1930244E-1,3.182292E0,-8.78377E-1,1.389768E0,1.2008193E1,-4.0963516E0,1.5634181E0,-4.567034E0,-7.3690623E-1,8.862561E0,1.9958623E-1,7.291608E-2,2.10803E0,-2.1143484E0,7.15585E-1,1.8264854E0,-4.4212766E0,3.2456374E0,-8.177957E-1,-5.970183E0,-2.7527862E0,2.946762E-1,-5.193287E0,-3.4722524E0,4.9850526E0,1.4656353E0,-2.6039002E0,2.6568177E0,-1.2425058E0,2.3024452E1,4.197619E0,-6.9283805E0,3.2998009E0,5.678537E0,-1.0114237E0,1.5582802E0,-6.428429E0,3.2793608E0,-1.3826008E0,3.2220612E0,4.0287127E0,3.887985E-1,-1.7857219E0,3.38054E-2,-9.6577823E-1,6.9237846E-1,-8.792029E-1,4.2601433E0,-1.6035922E-2,-2.02608E-1,1.1615129E0,-2.240589E0,-3.0913296E-1,6.6090965E-1,3.1513805E0,6.9405556E-2,-1.6963907E0,4.7753364E-1,-1.9872066E0,-1.1562245E0,2.7645493E-2,7.4460286E-1,-4.8233363E-1,-1.0108008E0,-2.4978182E0,-1.5246851E0,2.0367624E-1,1.7225324E0,-6.1434203E-1,6.6918415E-1,-8.936215E-2,2.4725361E-1,-1.1103275E0,1.3688407E0,-2.7723658E-1,1.3573706E0,7.745855E0,-1.7273036E0,6.1709957E0,-2.7067795E0,-1.0345459E0,-6.444454E-2,2.0765474E0,-5.607894E-1,2.6452744E0,-8.6760294E-1,1.540814E0,-8.245827E-1,1.6037229E0,-4.090656E0,-9.669801E-1,1.1722373E0,-7.1835774E-1,3.0258627E0,-7.284173E-1,-9.46046E-1,2.237208E-1],"categories":[],"categories_nodes":[],"categories_segments":[],"categories_sizes":[],"default_left":[0,0,0,0,0,0,0,0,0,0,0,0,0,0,0,0,0,0,0,0,0,0,0,0,0,0,0,0,0,0,0,0,0,0,0,0,0,0,0,0,0,0,0,0,0,0,0,0,0,0,0,0,0,0,0,0,0,0,0,0,0,0,0,0,0,0,0,0,0,0,0,0,0,0,0,0,0,0,0,0,0,0,0,0,0,0,0,0,0,0,0,0,0,0,0,0,0,0,0,0,0,0,0,0,0,0,0,0,0,0,0,0,0,0,0,0,0],"id":17,"left_children":[1,3,5,7,9,11,13,15,17,19,21,23,25,27,29,31,33,35,37,39,41,43,45,47,49,51,53,55,57,59,61,63,-1,65,67,69,71,73,75,77,79,81,83,85,87,89,91,93,-1,95,97,99,101,103,105,107,109,-1,111,113,-1,115,-1,-1,-1,-1,-1,-1,-1,-1,-1,-1,-1,-1,-1,-1,-1,-1,-1,-1,-1,-1,-1,-1,-1,-1,-1,-1,-1,-1,-1,-1,-1,-1,-1,-1,-1,-1,-1,-1,-1,-1,-1,-1,-1,-1,-1,-1,-1,-1,-1,-1,-1,-1,-1,-1,-1],"loss_changes":[8.891486E1,1.747047E2,4.9965002E2,8.031753E1,2.6539545E2,9.0160187E2,2.6472357E2,1.3753152E2,9.27575E1,2.3594073E2,1.2612544E2,7.674181E2,1.722931E2,1.7190738E2,4.3037088E2,1.9249072E2,1.896569E2,1.2490098E2,1.2336224E2,6.6371704E1,2.4028409E2,2.0925414E2,6.4486084E1,1.0912448E2,1.1940015E3,2.742157E2,1.117012E2,2.1524664E2,2.863387E2,1.112742E2,1.5596655E2,1.0968532E2,0E0,2.4863562E2,3.844637E2,3.8432636E1,5.430239E1,1.7363214E2,5.712835E1,8.4708496E1,5.675128E1,1.7044266E2,2.9086945E1,3.0184544E1,8.094299E1,1.0107765E1,3.6901676E1,8.6119194E1,0E0,1.9342798E2,1.748353E3,3.447464E1,5.2407E1,1.1125464E2,9.577943E1,9.625426E1,2.7944757E2,0E0,1.9671649E2,1.7962286E2,0E0,1.6545596E2,0E0,0E0,0E0,0E0,0E0,0E0,0E0,0E0,0E0,0E0,0E0,0E0,0E0,0E0,0E0,0E0,0E0,0E0,0E0,0E0,0E0,0E0,0E0,0E0,0E0,0E0,0E0,0E0,0E0,0E0,0E0,0E0,0E0,0E0,0E0,0E0,0E0,0E0,0E0,0E0,0E0,0E0,0E0,0E0,0E0,0E0,0E0,0E0,0E0,0E0,0E0,0E0,0E0,0E0,0E0],"parents":[2147483647,0,0,1,1,2,2,3,3,4,4,5,5,6,6,7,7,8,8,9,9,10,10,11,11,12,12,13,13,14,14,15,15,16,16,17,17,18,18,19,19,20,20,21,21,22,22,23,23,24,24,25,25,26,26,27,27,28,28,29,29,30,30,31,31,33,33,34,34,35,35,36,36,37,37,38,38,39,39,40,40,41,41,42,42,43,43,44,44,45,45,46,46,47,47,49,49,50,50,51,51,52,52,53,53,54,54,55,55,56,56,58,58,59,59,61,61],"right_children":[2,4,6,8,10,12,14,16,18,20,22,24,26,28,30,32,34,36,38,40,42,44,46,48,50,52,54,56,58,60,62,64,-1,66,68,70,72,74,76,78,80,82,84,86,88,90,92,94,-1,96,98,100,102,104,106,108,110,-1,112,114,-1,116,-1,-1,-1,-1,-1,-1,-1,-1,-1,-1,-1,-1,-1,-1,-1,-1,-1,-1,-1,-1,-1,-1,-1,-1,-1,-1,-1,-1,-1,-1,-1,-1,-1,-1,-1,-1,-1,-1,-1,-1,-1,-1,-1,-1,-1,-1,-1,-1,-1,-1,-1,-1,-1,-1,-1],"split_conditions":[1.6464167E1,1.5262081E1,1.7068335E1,3.9172237E1,2.886732E2,2.4914087E2,1.78225E1,6.4999995E0,2.13324E2,1.578708E1,1E-1,1.5069258E2,4E-1,1.594601E1,1.7895414E1,6.2000003E0,1.187875E1,5.6870837E0,6.376667E0,2.2057513E2,2.6870505E2,1.5378751E1,2.99564E2,1.2200535E2,3E-1,1.6855833E1,1.5000001E0,1.3737607E2,1.5986595E1,4.6999993E0,2.8916763E1,3.7114933E1,2.10803E0,2.2392464E1,1.192875E1,1.7743082E2,6.14125E0,5.964166E0,2.9524475E2,1.1173811E1,2.736947E1,1.6074583E1,1.1E0,1.4255272E1,1.6418333E1,3.0659237E1,1.484318E1,1.6855833E1,-1.2425058E0,1.0587918E1,5.1E0,2.99564E2,1.4182355E1,1.6992609E1,3.0984848E2,1.74475E1,1.78197E2,3.2793608E0,1.6880307E2,1E-1,4.0287127E0,1.1090103E1,-1.7857219E0,3.38054E-2,-9.6577823E-1,6.9237846E-1,-8.792029E-1,4.2601433E0,-1.6035922E-2,-2.02608E-1,1.1615129E0,-2.240589E0,-3.0913296E-1,6.6090965E-1,3.1513805E0,6.9405556E-2,-1.6963907E0,4.7753364E-1,-1.9872066E0,-1.1562245E0,2.7645493E-2,7.4460286E-1,-4.8233363E-1,-1.0108008E0,-2.4978182E0,-1.5246851E0,2.0367624E-1,1.7225324E0,-6.1434203E-1,6.6918415E-1,-8.936215E-2,2.4725361E-1,-1.1103275E0,1.3688407E0,-2.7723658E-1,1.3573706E0,7.745855E0,-1.7273036E0,6.1709957E0,-2.7067795E0,-1.0345459E0,-6.444454E-2,2.0765474E0,-5.607894E-1,2.6452744E0,-8.6760294E-1,1.540814E0,-8.245827E-1,1.6037229E0,-4.090656E0,-9.669801E-1,1.1722373E0,-7.1835774E-1,3.0258627E0,-7.284173E-1,-9.46046E-1,2.237208E-1],"split_indices":[0,0,0,2,3,3,0,1,3,0,1,3,1,2,0,1,0,0,0,3,3,0,3,3,1,0,1,3,2,1,2,2,0,2,0,3,0,0,3,3,2,0,1,2,0,2,2,0,0,2,1,3,2,2,3,0,3,0,3,1,0,2,0,0,0,0,0,0,0,0,0,0,0,0,0,0,0,0,0,0,0,0,0,0,0,0,0,0,0,0,0,0,0,0,0,0,0,0,0,0,0,0,0,0,0,0,0,0,0,0,0,0,0,0,0,0,0],"split_type":[0,0,0,0,0,0,0,0,0,0,0,0,0,0,0,0,0,0,0,0,0,0,0,0,0,0,0,0,0,0,0,0,0,0,0,0,0,0,0,0,0,0,0,0,0,0,0,0,0,0,0,0,0,0,0,0,0,0,0,0,0,0,0,0,0,0,0,0,0,0,0,0,0,0,0,0,0,0,0,0,0,0,0,0,0,0,0,0,0,0,0,0,0,0,0,0,0,0,0,0,0,0,0,0,0,0,0,0,0,0,0,0,0,0,0,0,0],"sum_hessian":[1.328E3,1.093E3,2.35E2,9.85E2,1.08E2,4.7E1,1.88E2,9.39E2,4.6E1,7.9E1,2.9E1,2.7E1,2E1,5.2E1,1.36E2,8.37E2,1.02E2,1.1E1,3.5E1,3.1E1,4.8E1,1.5E1,1.4E1,1.3E1,1.4E1,1.1E1,9E0,1.7E1,3.5E1,5E0,1.31E2,8.34E2,3E0,6.6E1,3.6E1,6E0,5E0,2.5E1,1E1,1.4E1,1.7E1,3.9E1,9E0,3E0,1.2E1,6E0,8E0,1.1E1,2E0,5E0,9E0,8E0,3E0,3E0,6E0,4E0,1.3E1,1E0,3.4E1,3E0,2E0,1.28E2,3E0,8.25E2,9E0,1E1,5.6E1,1E0,3.5E1,3E0,3E0,2E0,3E0,2.3E1,2E0,9E0,1E0,1E0,1.3E1,1.2E1,5E0,1.8E1,2.1E1,7E0,2E0,2E0,1E0,1.1E1,1E0,4E0,2E0,2E0,6E0,7E0,4E0,1E0,4E0,6E0,3E0,4E0,4E0,2E0,1E0,1E0,2E0,5E0,1E0,2E0,2E0,3E0,1E1,5E0,2.9E1,1E0,2E0,1.1E1,1.17E2],"tree_param":{"num_deleted":"0","num_feature":"4","num_nodes":"117","size_leaf_vector":"1"}},{"base_weights":[2.9118206E-2,-4.3447194E-1,1.4173907E-1,-1.2791675E-1,-2.0225937E0,2.343559E0,6.0605574E-2,-5.659814E-1,2.0421846E0,-3.6899264E0,1.2246001E0,6.8662167E0,-2.8287154E-1,-1.8250821E0,1.624209E-1,-1.2295299E-1,-4.884791E0,7.2185855E0,-7.3123145E-1,-5.9301305E0,2.6518497E0,8.956012E0,-6.537718E-1,1.7374983E0,9.5224495E0,2.1161299E0,-2.6601136E0,2.8625622E0,-2.227175E0,3.4253266E0,1.6458709E-2,-3.8527524E-1,2.5609307E0,1.848259E0,-5.9601984E0,2.6959183E0,1.6720608E1,2.6562705E0,-2.8027182E0,-1.7412953E0,-9.579863E0,4.0785937E0,-3.2567656E-1,3.5195286E0,5.106766E-1,1.1430643E0,-2.3572118E0,4.6605414E-1,1.2142079E0,-2.4918309E-1,1.0920408E1,4.481578E0,-4.3265233E0,-3.440153E0,1.005054E0,-3.7882566E0,9.319938E-1,1.9387169E1,2.1425552E0,-1.8754163E0,9.387344E-2,1.17856726E-1,-4.3343666E-1,-1.3089656E0,1.642638E0,-2.1564934E0,-8.1458753E-1,3.4631083E0,1.290599E-1,6.518543E0,2.5455067E-1,-5.0119095E-2,2.0799115E0,-1.130164E0,7.8974915E-1,-2.176513E0,3.699721E-1,-7.417984E-1,-3.2653503E0,1.9787008E0,-1.9111119E-1,-2.503197E-1,6.302788E-1,-3.3462068E-1,-1.0923473E0,4.7186825E-1,-6.116381E-2,3.6943924E0,1.7411613E-1,2.1610315E0,8.70205E-1,-2.9303823E0,2.2297879E-1,5.186923E-1,-1.220176E0,-1.5837625E0,-2.5770453E-1,8.1695855E-1,-6.815337E-1,8.758497E0,-3.4270193E-2,-3.1384957E0,1.4023569E0,4.993356E0,-8.5566205E-1,3.2359736E0,6.721508E-3],"categories":[],"categories_nodes":[],"categories_segments":[],"categories_sizes":[],"default_left":[0,0,0,0,0,0,0,0,0,0,0,0,0,0,0,0,0,0,0,0,0,0,0,0,0,0,0,0,0,0,0,0,0,0,0,0,0,0,0,0,0,0,0,0,0,0,0,0,0,0,0,0,0,0,0,0,0,0,0,0,0,0,0,0,0,0,0,0,0,0,0,0,0,0,0,0,0,0,0,0,0,0,0,0,0,0,0,0,0,0,0,0,0,0,0,0,0,0,0,0,0,0,0,0,0,0,0],"id":18,"left_children":[1,3,5,7,9,11,13,15,17,19,21,23,25,27,29,31,33,35,37,39,41,43,45,47,49,51,53,-1,55,57,59,61,63,-1,65,67,69,71,73,75,77,79,-1,-1,-1,81,83,85,-1,-1,87,89,91,93,-1,95,97,99,101,103,105,-1,-1,-1,-1,-1,-1,-1,-1,-1,-1,-1,-1,-1,-1,-1,-1,-1,-1,-1,-1,-1,-1,-1,-1,-1,-1,-1,-1,-1,-1,-1,-1,-1,-1,-1,-1,-1,-1,-1,-1,-1,-1,-1,-1,-1,-1],"loss_changes":[6.944857E1,1.26321495E2,1.9100421E2,2.09347E2,2.3191307E2,4.5332318E2,1.9862405E2,3.495434E2,5.3646204E2,4.1351828E2,2.2369218E2,1.7417773E2,1.4820432E2,2.634917E2,4.6715552E2,1.18561745E2,2.3865582E2,5.1359094E2,1.828739E2,3.0436914E2,4.708662E1,4.043338E1,4.248488E1,1.5734869E1,1.3932892E2,2.1750658E2,7.247257E1,0E0,2.5998013E2,8.184285E2,1.378475E2,1.26706955E2,3.266001E2,0E0,4.424341E1,1.9549962E2,2.99505E2,1.2190569E2,9.3792984E1,1.8935645E2,7.508191E1,7.5419266E1,0E0,0E0,0E0,1.5012013E1,7.099556E0,4.028227E0,0E0,0E0,1.0818402E2,2.2134857E1,1.1760742E2,4.593091E1,0E0,1.483226E2,1.0948134E2,5.771338E2,1.325441E3,7.1680725E2,6.905867E2,0E0,0E0,0E0,0E0,0E0,0E0,0E0,0E0,0E0,0E0,0E0,0E0,0E0,0E0,0E0,0E0,0E0,0E0,0E0,0E0,0E0,0E0,0E0,0E0,0E0,0E0,0E0,0E0,0E0,0E0,0E0,0E0,0E0,0E0,0E0,0E0,0E0,0E0,0E0,0E0,0E0,0E0,0E0,0E0,0E0,0E0],"parents":[2147483647,0,0,1,1,2,2,3,3,4,4,5,5,6,6,7,7,8,8,9,9,10,10,11,11,12,12,13,13,14,14,15,15,16,16,17,17,18,18,19,19,20,20,21,21,22,22,23,23,24,24,25,25,26,26,28,28,29,29,30,30,31,31,32,32,34,34,35,35,36,36,37,37,38,38,39,39,40,40,41,41,45,45,46,46,47,47,50,50,51,51,52,52,53,53,55,55,56,56,57,57,58,58,59,59,60,60],"right_children":[2,4,6,8,10,12,14,16,18,20,22,24,26,28,30,32,34,36,38,40,42,44,46,48,50,52,54,-1,56,58,60,62,64,-1,66,68,70,72,74,76,78,80,-1,-1,-1,82,84,86,-1,-1,88,90,92,94,-1,96,98,100,102,104,106,-1,-1,-1,-1,-1,-1,-1,-1,-1,-1,-1,-1,-1,-1,-1,-1,-1,-1,-1,-1,-1,-1,-1,-1,-1,-1,-1,-1,-1,-1,-1,-1,-1,-1,-1,-1,-1,-1,-1,-1,-1,-1,-1,-1,-1,-1],"split_conditions":[3.0162504E0,2.312083E0,3.5808334E0,2.8387545E1,1.9000002E0,2E-1,4.2225003E0,2.5277025E1,3.0599998E1,2.6800214E2,4.2E0,3.1245835E0,2.7852928E1,1.1753876E1,4.8245835E0,2.3510508E1,-2.7608337E0,1.668333E0,1.9161148E2,1.146203E2,2.7891667E0,2.7266667E0,2.66E0,1E-1,1.0028439E1,2.5427184E2,9.7E0,2.8625622E0,2.0000002E0,1.4618837E1,5.4558334E0,1.5837189E2,-2.3795836E0,1.848259E0,2.7459293E1,2.8521906E1,2.0808332E0,1.0141667E0,4.1947342E1,2.5849998E0,1.803237E1,2.8054604E1,-3.2567656E-1,3.5195286E0,5.106766E-1,6.938293E1,8.000001E0,1.4182355E1,1.2142079E0,-2.4918309E-1,3.3353954E1,3E-1,3.2974997E0,3.1245835E0,1.005054E0,2.70945E2,4.04125E0,4.3183336E0,1.9493261E1,1.0028439E1,5.570417E0,1.17856726E-1,-4.3343666E-1,-1.3089656E0,1.642638E0,-2.1564934E0,-8.1458753E-1,3.4631083E0,1.290599E-1,6.518543E0,2.5455067E-1,-5.0119095E-2,2.0799115E0,-1.130164E0,7.8974915E-1,-2.176513E0,3.699721E-1,-7.417984E-1,-3.2653503E0,1.9787008E0,-1.9111119E-1,-2.503197E-1,6.302788E-1,-3.3462068E-1,-1.0923473E0,4.7186825E-1,-6.116381E-2,3.6943924E0,1.7411613E-1,2.1610315E0,8.70205E-1,-2.9303823E0,2.2297879E-1,5.186923E-1,-1.220176E0,-1.5837625E0,-2.5770453E-1,8.1695855E-1,-6.815337E-1,8.758497E0,-3.4270193E-2,-3.1384957E0,1.4023569E0,4.993356E0,-8.5566205E-1,3.2359736E0,6.721508E-3],"split_indices":[0,0,0,2,1,1,0,2,2,3,1,0,2,2,0,2,0,0,3,3,0,0,0,1,2,3,1,0,1,2,0,3,0,0,2,2,0,0,2,0,2,2,0,0,0,3,1,2,0,0,2,1,0,0,0,3,0,0,2,2,0,0,0,0,0,0,0,0,0,0,0,0,0,0,0,0,0,0,0,0,0,0,0,0,0,0,0,0,0,0,0,0,0,0,0,0,0,0,0,0,0,0,0,0,0,0,0],"split_type":[0,0,0,0,0,0,0,0,0,0,0,0,0,0,0,0,0,0,0,0,0,0,0,0,0,0,0,0,0,0,0,0,0,0,0,0,0,0,0,0,0,0,0,0,0,0,0,0,0,0,0,0,0,0,0,0,0,0,0,0,0,0,0,0,0,0,0,0,0,0,0,0,0,0,0,0,0,0,0,0,0,0,0,0,0,0,0,0,0,0,0,0,0,0,0,0,0,0,0,0,0,0,0,0,0,0,0],"sum_hessian":[1.328E3,2.59E2,1.069E3,2.18E2,4.1E1,3.7E1,1.032E3,1.82E2,3.6E1,2.7E1,1.4E1,1.3E1,2.4E1,5.2E1,9.8E2,1.66E2,1.6E1,1.2E1,2.4E1,2E1,7E0,2E0,1.2E1,5E0,8E0,1.2E1,1.2E1,1E0,5.1E1,4.1E1,9.39E2,1.52E2,1.4E1,1E0,1.5E1,9E0,3E0,9E0,1.5E1,1E1,1E1,5E0,2E0,1E0,1E0,6E0,6E0,4E0,1E0,1E0,7E0,9E0,3E0,1.1E1,1E0,3.4E1,1.7E1,2E0,3.9E1,3.6E1,9.03E2,8.8E1,6.4E1,4E0,1E1,1E1,5E0,1E0,8E0,2E0,1E0,6E0,3E0,1.3E1,2E0,3E0,7E0,2E0,8E0,3E0,2E0,2E0,4E0,4E0,2E0,1E0,3E0,6E0,1E0,2E0,7E0,1E0,2E0,1E0,1E1,2.2E1,1.2E1,1.1E1,6E0,1E0,1E0,6E0,3.3E1,1E0,3.5E1,5E0,8.98E2],"tree_param":{"num_deleted":"0","num_feature":"4","num_nodes":"107","size_leaf_vector":"1"}},{"base_weights":[4.369204E-2,-4.0077144E-1,1.4451706E-1,-1.8596143E-1,-2.5794752E0,2.7658246E0,9.264491E-2,-7.126359E-1,5.0383747E-1,-7.6281774E-1,-4.029788E0,5.6162877E0,-9.313137E-1,-3.4766822E0,1.2638958E-1,-4.4009584E-1,-5.360814E0,1.4947978E-1,7.0649943E0,-1.4852327E0,3.5522766E0,-2.2678244E0,-1.3200481E0,6.4133983E0,-4.727898E-1,-1.1775942E0,9.125884E-1,-4.4001966E0,1.4491718E-1,-1.8130713E0,1.7522413E-1,-6.4369917E-1,4.452962E0,-2.1134276E0,-7.0099974E-1,2.718928E0,-3.7280697E-1,5.061124E0,3.9603662E-1,1.3973932E0,-2.9643404E-1,-2.059936E0,1.6731625E0,2.848633E-1,7.5220833E0,3.9983304E0,-1.1213745E0,-1.5781643E0,2.4333917E-1,5.9206583E-2,6.006146E-3,-5.403701E0,1.1803039E0,3.7596128E0,1.1854882E-1,-1.07715204E-1,-1.7691889E0,-9.101948E-1,3.1366758E0,-2.226425E0,1.1669136E0,-2.9560265E-1,4.8401237E-1,7.505734E-1,-3.419676E-1,1.5309471E0,-3.952871E-1,1.0567844E0,2.6804147E0,1.4377934E0,3.6145535E-1,-9.5361847E-1,5.6293774E-2,-2.1460238E0,-3.4778025E-2,1.8306118E0,-1.1666908E0,-1.358901E0,2.0700538E0,2.3179834E-1,-3.5864744E-2],"categories":[],"categories_nodes":[],"categories_segments":[],"categories_sizes":[],"default_left":[0,0,0,0,0,0,0,0,0,0,0,0,0,0,0,0,0,0,0,0,0,0,0,0,0,0,0,0,0,0,0,0,0,0,0,0,0,0,0,0,0,0,0,0,0,0,0,0,0,0,0,0,0,0,0,0,0,0,0,0,0,0,0,0,0,0,0,0,0,0,0,0,0,0,0,0,0,0,0,0,0],"id":19,"left_children":[1,3,5,7,9,11,13,15,17,19,21,23,25,27,29,31,33,35,37,-1,39,-1,41,43,-1,-1,45,47,49,51,53,55,57,-1,-1,59,61,-1,63,-1,-1,-1,65,-1,67,69,71,-1,-1,-1,-1,73,75,77,79,-1,-1,-1,-1,-1,-1,-1,-1,-1,-1,-1,-1,-1,-1,-1,-1,-1,-1,-1,-1,-1,-1,-1,-1,-1,-1],"loss_changes":[5.9614452E1,1.14650116E2,1.4713834E2,8.2101425E1,5.4889893E1,2.2654022E2,1.285937E2,1.59793E2,2.2679356E2,2.163723E2,1.0479364E2,7.8903564E1,5.8788628E1,3.4083664E1,1.002396E2,1.2440799E2,1.9186249E1,1.2716058E2,3.2027832E2,0E0,3.4724487E1,0E0,1.4430115E2,5.9492065E1,0E0,0E0,4.841762E1,4.013556E1,1.5696883E-2,2.8582867E2,2.0879504E2,1.7434311E2,2.564286E2,0E0,0E0,2.1882162E2,9.770159E1,0E0,1.5789799E1,0E0,0E0,0E0,6.827431E1,0E0,1.937442E1,8.822708E-1,1.4062064E1,0E0,0E0,0E0,0E0,1.1019559E2,3.9797498E2,4.4778424E2,1.5817131E2,0E0,0E0,0E0,0E0,0E0,0E0,0E0,0E0,0E0,0E0,0E0,0E0,0E0,0E0,0E0,0E0,0E0,0E0,0E0,0E0,0E0,0E0,0E0,0E0,0E0,0E0],"parents":[2147483647,0,0,1,1,2,2,3,3,4,4,5,5,6,6,7,7,8,8,9,9,10,10,11,11,12,12,13,13,14,14,15,15,16,16,17,17,18,18,20,20,22,22,23,23,26,26,27,27,28,28,29,29,30,30,31,31,32,32,35,35,36,36,38,38,42,42,44,44,45,45,46,46,51,51,52,52,53,53,54,54],"right_children":[2,4,6,8,10,12,14,16,18,20,22,24,26,28,30,32,34,36,38,-1,40,-1,42,44,-1,-1,46,48,50,52,54,56,58,-1,-1,60,62,-1,64,-1,-1,-1,66,-1,68,70,72,-1,-1,-1,-1,74,76,78,80,-1,-1,-1,-1,-1,-1,-1,-1,-1,-1,-1,-1,-1,-1,-1,-1,-1,-1,-1,-1,-1,-1,-1,-1,-1,-1],"split_conditions":[1.146203E2,1.0818917E2,1.2069966E2,7.0433335E0,5.268334E0,7.922499E0,9.007196E0,6.3224998E0,3.1394394E1,1.0141667E0,1.4682915E1,4.1000004E0,1.3722499E1,2.3422755E2,1.282261E2,5.964166E0,2.1829777E1,8.626667E0,3.268871E1,-1.4852327E0,4.04125E0,-2.2678244E0,1.0948456E2,1.1633304E2,-4.727898E-1,-1.1775942E0,1.6674582E1,1.8824583E1,1.4329166E0,1.8E1,1.3145718E2,5.1558332E0,1E-1,-2.1134276E0,-7.0099974E-1,1.3044722E1,3.3000002E0,5.061124E0,3E-1,1.3973932E0,-2.9643404E-1,-2.059936E0,1.7283749E1,2.848633E-1,2.0808332E0,1.4057915E1,2.0501665E1,-1.5781643E0,2.4333917E-1,5.9206583E-2,6.006146E-3,1E-1,2.261419E1,1.484318E1,1.7283749E1,-1.07715204E-1,-1.7691889E0,-9.101948E-1,3.1366758E0,-2.226425E0,1.1669136E0,-2.9560265E-1,4.8401237E-1,7.505734E-1,-3.419676E-1,1.5309471E0,-3.952871E-1,1.0567844E0,2.6804147E0,1.4377934E0,3.6145535E-1,-9.5361847E-1,5.6293774E-2,-2.1460238E0,-3.4778025E-2,1.8306118E0,-1.1666908E0,-1.358901E0,2.0700538E0,2.3179834E-1,-3.5864744E-2],"split_indices":[3,3,3,0,0,0,2,0,2,0,0,1,0,3,3,0,2,0,2,0,0,0,3,3,0,0,0,0,0,2,3,0,1,0,0,2,1,0,1,0,0,0,2,0,0,0,0,0,0,0,0,1,2,2,2,0,0,0,0,0,0,0,0,0,0,0,0,0,0,0,0,0,0,0,0,0,0,0,0,0,0],"split_type":[0,0,0,0,0,0,0,0,0,0,0,0,0,0,0,0,0,0,0,0,0,0,0,0,0,0,0,0,0,0,0,0,0,0,0,0,0,0,0,0,0,0,0,0,0,0,0,0,0,0,0,0,0,0,0,0,0,0,0,0,0,0,0,0,0,0,0,0,0,0,0,0,0,0,0,0,0,0,0,0,0],"sum_hessian":[1.328E3,2.45E2,1.083E3,2.24E2,2.1E1,2E1,1.063E3,1.27E2,9.7E1,1E1,1.1E1,1.1E1,9E0,9E0,1.054E3,1.21E2,6E0,9.3E1,4E0,5E0,5E0,4E0,7E0,1E1,1E0,3E0,6E0,7E0,2E0,2.5E1,1.029E3,1.17E2,4E0,3E0,3E0,1.5E1,7.8E1,1E0,3E0,4E0,1E0,2E0,5E0,2E0,8E0,2E0,4E0,6E0,1E0,1E0,1E0,1.1E1,1.4E1,1.5E1,1.014E3,1.12E2,5E0,2E0,2E0,1E0,1.4E1,6E1,1.8E1,1E0,2E0,2E0,3E0,3E0,5E0,1E0,1E0,1E0,3E0,8E0,3E0,7E0,7E0,4E0,1.1E1,2.7E2,7.44E2],"tree_param":{"num_deleted":"0","num_feature":"4","num_nodes":"81","size_leaf_vector":"1"}},{"base_weights":[3.0547755E-2,-6.893517E-2,4.6879548E-1,6.1119962E-2,-9.7594535E-1,2.2723713E0,-8.716322E-2,-3.4222278E-1,2.4268483E-1,-1.2231176E0,3.1317E0,5.3714685E0,-7.321122E-2,-1.4968916E0,4.5884237E-1,-7.562572E-2,-3.3493967E0,9.640565E0,5.2303612E-2,-5.1325524E-1,-2.4103174E0,5.2796006E0,-6.624004E-1,3.4870262E0,7.589714E0,5.489206E0,-9.9784034E-1,-3.5129144E0,-4.4729984E-1,7.148606E0,1.5128614E-1,-2.2159493E-1,7.7634497E0,-6.821682E0,4.4478836E0,4.774521E-1,1.3660009E1,-3.4076068E0,2.0948736E-1,-7.825863E-1,4.934346E0,1.596963E0,-3.2516975E0,7.4552555E0,1.8565828E-1,5.5654488E0,-2.355636E0,1.9346986E0,2.475074E-1,-3.9244807E0,1.1712798E0,1.5849091E0,-5.082643E0,2.7516782E0,-9.84209E-1,2.7178283E0,3.202032E0,2.2382212E0,-3.5723346E-1,-9.417791E-2,2.4116962E0,8.105115E0,-1.1412637E0,2.291541E0,-2.77768E0,2.8134332E0,-8.480609E-1,-5.8603936E-1,4.7206423E-1,1.3852934E0,5.9911118E0,2.323878E0,-1.3690591E0,2.276917E0,4.465471E-2,4.9974237E-2,-6.772914E-1,-4.8998168E-1,3.6955802E0,2.2198453E0,-3.353908E-1,-1.231663E0,-3.4875467E-1,6.3798755E-1,2.5567772E0,3.034157E-1,5.161121E0,-2.0037587E0,7.6704985E-1,-1.5636708E0,1.729287E0,5.040267E0,-2.2091901E-1,-6.018898E-1,1.3943443E0,-3.2239249E0,-7.683093E-1,-7.758957E-1,3.2398248E-1,1.9217682E0,-1.2519554E0,3.1614134E0,-7.1921624E-2,-4.3278635E-1,3.0208302E-1],"categories":[],"categories_nodes":[],"categories_segments":[],"categories_sizes":[],"default_left":[0,0,0,0,0,0,0,0,0,0,0,0,0,0,0,0,0,0,0,0,0,0,0,0,0,0,0,0,0,0,0,0,0,0,0,0,0,0,0,0,0,0,0,0,0,0,0,0,0,0,0,0,0,0,0,0,0,0,0,0,0,0,0,0,0,0,0,0,0,0,0,0,0,0,0,0,0,0,0,0,0,0,0,0,0,0,0,0,0,0,0,0,0,0,0,0,0,0,0,0,0,0,0,0,0],"id":20,"left_children":[1,3,5,7,9,11,13,15,17,19,21,23,25,27,29,31,33,35,37,39,41,43,-1,45,-1,47,49,51,53,55,57,59,61,63,65,